{"learner":{"attributes":{"best_iteration":"998","best_score":"0.9769321204138549","scikit_learn":"{\"_estimator_type\": \"regressor\"}"},"feature_names":[],"feature_types":[],"gradient_booster":{"model":{"gbtree_model_param":{"num_parallel_tree":"1","num_trees":"1000"},"iteration_indptr":[0,1,2,3,4,5,6,7,8,9,10,11,12,13,14,15,16,17,18,19,20,21,22,23,24,25,26,27,28,29,30,31,32,33,34,35,36,37,38,39,40,41,42,43,44,45,46,47,48,49,50,51,52,53,54,55,56,57,58,59,60,61,62,63,64,65,66,67,68,69,70,71,72,73,74,75,76,77,78,79,80,81,82,83,84,85,86,87,88,89,90,91,92,93,94,95,96,97,98,99,100,101,102,103,104,105,106,107,108,109,110,111,112,113,114,115,116,117,118,119,120,121,122,123,124,125,126,127,128,129,130,131,132,133,134,135,136,137,138,139,140,141,142,143,144,145,146,147,148,149,150,151,152,153,154,155,156,157,158,159,160,161,162,163,164,165,166,167,168,169,170,171,172,173,174,175,176,177,178,179,180,181,182,183,184,185,186,187,188,189,190,191,192,193,194,195,196,197,198,199,200,201,202,203,204,205,206,207,208,209,210,211,212,213,214,215,216,217,218,219,220,221,222,223,224,225,226,227,228,229,230,231,232,233,234,235,236,237,238,239,240,241,242,243,244,245,246,247,248,249,250,251,252,253,254,255,256,257,258,259,260,261,262,263,264,265,266,267,268,269,270,271,272,273,274,275,276,277,278,279,280,281,282,283,284,285,286,287,288,289,290,291,292,293,294,295,296,297,298,299,300,301,302,303,304,305,306,307,308,309,310,311,312,313,314,315,316,317,318,319,320,321,322,323,324,325,326,327,328,329,330,331,332,333,334,335,336,337,338,339,340,341,342,343,344,345,346,347,348,349,350,351,352,353,354,355,356,357,358,359,360,361,362,363,364,365,366,367,368,369,370,371,372,373,374,375,376,377,378,379,380,381,382,383,384,385,386,387,388,389,390,391,392,393,394,395,396,397,398,399,400,401,402,403,404,405,406,407,408,409,410,411,412,413,414,415,416,417,418,419,420,421,422,423,424,425,426,427,428,429,430,431,432,433,434,435,436,437,438,439,440,441,442,443,444,445,446,447,448,449,450,451,452,453,454,455,456,457,458,459,460,461,462,463,464,465,466,467,468,469,470,471,472,473,474,475,476,477,478,479,480,481,482,483,484,485,486,487,488,489,490,491,492,493,494,495,496,497,498,499,500,501,502,503,504,505,506,507,508,509,510,511,512,513,514,515,516,517,518,519,520,521,522,523,524,525,526,527,528,529,530,531,532,533,534,535,536,537,538,539,540,541,542,543,544,545,546,547,548,549,550,551,552,553,554,555,556,557,558,559,560,561,562,563,564,565,566,567,568,569,570,571,572,573,574,575,576,577,578,579,580,581,582,583,584,585,586,587,588,589,590,591,592,593,594,595,596,597,598,599,600,601,602,603,604,605,606,607,608,609,610,611,612,613,614,615,616,617,618,619,620,621,622,623,624,625,626,627,628,629,630,631,632,633,634,635,636,637,638,639,640,641,642,643,644,645,646,647,648,649,650,651,652,653,654,655,656,657,658,659,660,661,662,663,664,665,666,667,668,669,670,671,672,673,674,675,676,677,678,679,680,681,682,683,684,685,686,687,688,689,690,691,692,693,694,695,696,697,698,699,700,701,702,703,704,705,706,707,708,709,710,711,712,713,714,715,716,717,718,719,720,721,722,723,724,725,726,727,728,729,730,731,732,733,734,735,736,737,738,739,740,741,742,743,744,745,746,747,748,749,750,751,752,753,754,755,756,757,758,759,760,761,762,763,764,765,766,767,768,769,770,771,772,773,774,775,776,777,778,779,780,781,782,783,784,785,786,787,788,789,790,791,792,793,794,795,796,797,798,799,800,801,802,803,804,805,806,807,808,809,810,811,812,813,814,815,816,817,818,819,820,821,822,823,824,825,826,827,828,829,830,831,832,833,834,835,836,837,838,839,840,841,842,843,844,845,846,847,848,849,850,851,852,853,854,855,856,857,858,859,860,861,862,863,864,865,866,867,868,869,870,871,872,873,874,875,876,877,878,879,880,881,882,883,884,885,886,887,888,889,890,891,892,893,894,895,896,897,898,899,900,901,902,903,904,905,906,907,908,909,910,911,912,913,914,915,916,917,918,919,920,921,922,923,924,925,926,927,928,929,930,931,932,933,934,935,936,937,938,939,940,941,942,943,944,945,946,947,948,949,950,951,952,953,954,955,956,957,958,959,960,961,962,963,964,965,966,967,968,969,970,971,972,973,974,975,976,977,978,979,980,981,982,983,984,985,986,987,988,989,990,991,992,993,994,995,996,997,998,999,1000],"tree_info":[0,0,0,0,0,0,0,0,0,0,0,0,0,0,0,0,0,0,0,0,0,0,0,0,0,0,0,0,0,0,0,0,0,0,0,0,0,0,0,0,0,0,0,0,0,0,0,0,0,0,0,0,0,0,0,0,0,0,0,0,0,0,0,0,0,0,0,0,0,0,0,0,0,0,0,0,0,0,0,0,0,0,0,0,0,0,0,0,0,0,0,0,0,0,0,0,0,0,0,0,0,0,0,0,0,0,0,0,0,0,0,0,0,0,0,0,0,0,0,0,0,0,0,0,0,0,0,0,0,0,0,0,0,0,0,0,0,0,0,0,0,0,0,0,0,0,0,0,0,0,0,0,0,0,0,0,0,0,0,0,0,0,0,0,0,0,0,0,0,0,0,0,0,0,0,0,0,0,0,0,0,0,0,0,0,0,0,0,0,0,0,0,0,0,0,0,0,0,0,0,0,0,0,0,0,0,0,0,0,0,0,0,0,0,0,0,0,0,0,0,0,0,0,0,0,0,0,0,0,0,0,0,0,0,0,0,0,0,0,0,0,0,0,0,0,0,0,0,0,0,0,0,0,0,0,0,0,0,0,0,0,0,0,0,0,0,0,0,0,0,0,0,0,0,0,0,0,0,0,0,0,0,0,0,0,0,0,0,0,0,0,0,0,0,0,0,0,0,0,0,0,0,0,0,0,0,0,0,0,0,0,0,0,0,0,0,0,0,0,0,0,0,0,0,0,0,0,0,0,0,0,0,0,0,0,0,0,0,0,0,0,0,0,0,0,0,0,0,0,0,0,0,0,0,0,0,0,0,0,0,0,0,0,0,0,0,0,0,0,0,0,0,0,0,0,0,0,0,0,0,0,0,0,0,0,0,0,0,0,0,0,0,0,0,0,0,0,0,0,0,0,0,0,0,0,0,0,0,0,0,0,0,0,0,0,0,0,0,0,0,0,0,0,0,0,0,0,0,0,0,0,0,0,0,0,0,0,0,0,0,0,0,0,0,0,0,0,0,0,0,0,0,0,0,0,0,0,0,0,0,0,0,0,0,0,0,0,0,0,0,0,0,0,0,0,0,0,0,0,0,0,0,0,0,0,0,0,0,0,0,0,0,0,0,0,0,0,0,0,0,0,0,0,0,0,0,0,0,0,0,0,0,0,0,0,0,0,0,0,0,0,0,0,0,0,0,0,0,0,0,0,0,0,0,0,0,0,0,0,0,0,0,0,0,0,0,0,0,0,0,0,0,0,0,0,0,0,0,0,0,0,0,0,0,0,0,0,0,0,0,0,0,0,0,0,0,0,0,0,0,0,0,0,0,0,0,0,0,0,0,0,0,0,0,0,0,0,0,0,0,0,0,0,0,0,0,0,0,0,0,0,0,0,0,0,0,0,0,0,0,0,0,0,0,0,0,0,0,0,0,0,0,0,0,0,0,0,0,0,0,0,0,0,0,0,0,0,0,0,0,0,0,0,0,0,0,0,0,0,0,0,0,0,0,0,0,0,0,0,0,0,0,0,0,0,0,0,0,0,0,0,0,0,0,0,0,0,0,0,0,0,0,0,0,0,0,0,0,0,0,0,0,0,0,0,0,0,0,0,0,0,0,0,0,0,0,0,0,0,0,0,0,0,0,0,0,0,0,0,0,0,0,0,0,0,0,0,0,0,0,0,0,0,0,0,0,0,0,0,0,0,0,0,0,0,0,0,0,0,0,0,0,0,0,0,0,0,0,0,0,0,0,0,0,0,0,0,0,0,0,0,0,0,0,0,0,0,0,0,0,0,0,0,0,0,0,0,0,0,0,0,0,0,0,0,0,0,0,0,0,0,0,0,0,0,0,0,0,0,0,0,0,0,0,0,0,0,0,0,0,0,0,0,0,0,0,0,0,0,0,0,0,0,0,0,0,0,0,0,0,0,0,0,0,0,0,0,0,0,0,0,0,0,0,0,0,0,0,0,0,0,0,0,0,0,0,0,0,0,0,0,0,0,0,0,0,0,0,0,0,0,0,0,0,0,0,0,0,0,0,0,0,0,0,0,0,0,0,0,0,0,0,0,0,0,0,0,0,0,0,0,0,0,0,0,0,0,0,0,0,0,0,0,0,0,0,0,0,0,0,0,0,0,0,0,0,0,0,0,0,0,0,0,0,0,0,0,0,0,0,0,0,0,0,0,0,0,0,0,0,0,0,0,0,0,0,0,0,0,0,0,0,0,0,0,0,0,0,0,0,0,0,0,0,0,0,0,0,0,0],"trees":[{"base_weights":[-7.101785E-2,-4.569266E-1,4.4742337E-1,-2.526662E-1,-1.5037855E0,5.8788496E-1,-4.0460568E-2,-1.50654E-3,-3.1085648E-2,1.2487667E-2,-3.909989E-2,1.3086123E-2,-7.2805826E-3,2.2397866E-2,-3.280542E-3],"categories":[],"categories_nodes":[],"categories_segments":[],"categories_sizes":[],"default_left":[0,0,0,0,0,0,0,0,0,0,0,0,0,0,0],"id":0,"left_children":[1,3,5,7,9,11,13,-1,-1,-1,-1,-1,-1,-1,-1],"loss_changes":[9.8453186E1,5.799803E1,1.4917545E1,5.353485E1,4.698317E1,1.11359215E1,6.1504226E0,0E0,0E0,0E0,0E0,0E0,0E0,0E0,0E0],"parents":[2147483647,0,0,1,1,2,2,3,3,4,4,5,5,6,6],"right_children":[2,4,6,8,10,12,14,-1,-1,-1,-1,-1,-1,-1,-1],"split_conditions":[-4.1385117E-1,1.6134865E0,8.1323504E-1,2.0522745E0,-6.055279E-1,1.1401951E0,2.512438E-2,-1.50654E-3,-3.1085648E-2,1.2487667E-2,-3.909989E-2,1.3086123E-2,-7.2805826E-3,2.2397866E-2,-3.280542E-3],"split_indices":[21,12,13,5,14,26,24,0,0,0,0,0,0,0,0],"split_type":[0,0,0,0,0,0,0,0,0,0,0,0,0,0,0],"sum_hessian":[4.88E2,2.81E2,2.07E2,2.38E2,4.3E1,1.62E2,4.5E1,2.12E2,2.6E1,7E0,3.6E1,1.53E2,9E0,2E0,4.3E1],"tree_param":{"num_deleted":"0","num_feature":"35","num_nodes":"15","size_leaf_vector":"1"}},{"base_weights":[1.7663299E-3,1.8775126E-1,-1.1654118E0,-4.4857147E-1,4.2981404E-1,-1.6252576E0,1.347781E-1,1.694119E-2,-1.3534023E-2,-1.1029548E-2,1.0795471E-2,6.94012E-3,-3.6861088E-2,-9.421011E-3,1.034363E-2],"categories":[],"categories_nodes":[],"categories_segments":[],"categories_sizes":[],"default_left":[0,0,0,0,0,0,0,0,0,0,0,0,0,0,0],"id":1,"left_children":[1,3,5,7,9,11,13,-1,-1,-1,-1,-1,-1,-1,-1],"loss_changes":[1.01269325E2,6.3057076E1,4.0193336E1,3.408011E1,3.2630646E1,2.33937E1,4.703446E0,0E0,0E0,0E0,0E0,0E0,0E0,0E0,0E0],"parents":[2147483647,0,0,1,1,2,2,3,3,4,4,5,5,6,6],"right_children":[2,4,6,8,10,12,14,-1,-1,-1,-1,-1,-1,-1,-1],"split_conditions":[1.2478551E0,-5.533487E-1,1.6703625E0,-7.173509E-1,-1.3306829E0,-1.1728883E0,-1.2595855E0,1.694119E-2,-1.3534023E-2,-1.1029548E-2,1.0795471E-2,6.94012E-3,-3.6861088E-2,-9.421011E-3,1.034363E-2],"split_indices":[12,26,12,14,12,26,6,0,0,0,0,0,0,0,0],"split_type":[0,0,0,0,0,0,0,0,0,0,0,0,0,0,0],"sum_hessian":[4.67E2,4.05E2,6.2E1,1.1E2,2.95E2,4.6E1,1.6E1,1.5E1,9.5E1,2.8E1,2.67E2,4E0,4.2E1,5E0,1.1E1],"tree_param":{"num_deleted":"0","num_feature":"35","num_nodes":"15","size_leaf_vector":"1"}},{"base_weights":[1.0955198E-1,2.6806265E-1,-9.124116E-1,-6.296444E-3,6.529218E-1,7.551112E-2,-1.740211E0,4.9156398E-3,-1.5086553E-2,-1.0203378E-2,1.5446988E-2,1.3819691E-2,-1.3982659E-2,-3.942589E-2,-0E0],"categories":[],"categories_nodes":[],"categories_segments":[],"categories_sizes":[],"default_left":[0,0,0,0,0,0,0,0,0,0,0,0,0,0,0],"id":2,"left_children":[1,3,5,7,9,11,13,-1,-1,-1,-1,-1,-1,-1,-1],"loss_changes":[7.873499E1,4.5424847E1,5.5084625E1,4.764286E1,2.5775352E1,1.5737989E1,1.53320465E1,0E0,0E0,0E0,0E0,0E0,0E0,0E0,0E0],"parents":[2147483647,0,0,1,1,2,2,3,3,4,4,5,5,6,6],"right_children":[2,4,6,8,10,12,14,-1,-1,-1,-1,-1,-1,-1,-1],"split_conditions":[1.2789218E0,-3.1303155E-1,9.3425673E-1,-5.9415495E-1,-4.0677565E-1,1.4455925E-1,-5.222396E-1,4.9156398E-3,-1.5086553E-2,-1.0203378E-2,1.5446988E-2,1.3819691E-2,-1.3982659E-2,-3.942589E-2,-0E0],"split_indices":[12,2,26,2,19,19,2,0,0,0,0,0,0,0,0],"split_type":[0,0,0,0,0,0,0,0,0,0,0,0,0,0,0],"sum_hessian":[4.85E2,4.22E2,6.3E1,2.46E2,1.76E2,2.9E1,3.4E1,1.84E2,6.2E1,1.5E1,1.61E2,1.7E1,1.2E1,3E1,4E0],"tree_param":{"num_deleted":"0","num_feature":"35","num_nodes":"15","size_leaf_vector":"1"}},{"base_weights":[7.565355E-3,-3.6693943E-1,5.115949E-1,-1.722746E-1,-1.5712641E0,7.1650016E-1,-5.962668E-2,-1.7536491E-2,3.6492564E-3,-4.05714E-2,-8.521736E-3,1.5638692E-2,-5.9046126E-3,-1.7668141E-2,3.1756433E-3],"categories":[],"categories_nodes":[],"categories_segments":[],"categories_sizes":[],"default_left":[0,0,0,0,0,0,0,0,0,0,0,0,0,0,0],"id":3,"left_children":[1,3,5,7,9,11,13,-1,-1,-1,-1,-1,-1,-1,-1],"loss_changes":[9.2635704E1,6.3358185E1,2.5322037E1,6.1997322E1,1.5717117E1,1.127594E1,1.1080735E1,0E0,0E0,0E0,0E0,0E0,0E0,0E0,0E0],"parents":[2147483647,0,0,1,1,2,2,3,3,4,4,5,5,6,6],"right_children":[2,4,6,8,10,12,14,-1,-1,-1,-1,-1,-1,-1,-1],"split_conditions":[-3.9839193E-1,1.553617E0,8.1323504E-1,-5.7052594E-1,1.5022413E-1,1.1451906E0,2.6208523E-1,-1.7536491E-2,3.6492564E-3,-4.05714E-2,-8.521736E-3,1.5638692E-2,-5.9046126E-3,-1.7668141E-2,3.1756433E-3],"split_indices":[17,12,13,26,5,26,18,0,0,0,0,0,0,0,0],"split_type":[0,0,0,0,0,0,0,0,0,0,0,0,0,0,0],"sum_hessian":[4.86E2,2.78E2,2.08E2,2.42E2,3.6E1,1.54E2,5.4E1,8.1E1,1.61E2,2.4E1,1.2E1,1.46E2,8E0,1.1E1,4.3E1],"tree_param":{"num_deleted":"0","num_feature":"35","num_nodes":"15","size_leaf_vector":"1"}},{"base_weights":[5.1381454E-2,-2.3464763E-1,4.827778E-1,4.602117E-1,-6.5964663E-1,-1.3968006E-1,6.625538E-1,1.5108269E-2,-2.717324E-3,-1.6878864E-2,1.4909366E-2,-2.275196E-2,1.2772272E-2,2.050297E-2,6.9540893E-3],"categories":[],"categories_nodes":[],"categories_segments":[],"categories_sizes":[],"default_left":[0,0,0,0,0,0,0,0,0,0,0,0,0,0,0],"id":4,"left_children":[1,3,5,7,9,11,13,-1,-1,-1,-1,-1,-1,-1,-1],"loss_changes":[6.14303E1,8.8515E1,2.2976646E1,2.0708666E1,4.9522903E1,3.6902256E1,1.572364E1,0E0,0E0,0E0,0E0,0E0,0E0,0E0,0E0],"parents":[2147483647,0,0,1,1,2,2,3,3,4,4,5,5,6,6],"right_children":[2,4,6,8,10,12,14,-1,-1,-1,-1,-1,-1,-1,-1],"split_conditions":[-4.1385117E-1,-1.1269225E-1,1.5022413E-1,-6.830373E-1,8.8233644E-1,3.6199325E-1,-2.4760436E-1,1.5108269E-2,-2.717324E-3,-1.6878864E-2,1.4909366E-2,-2.275196E-2,1.2772272E-2,2.050297E-2,6.9540893E-3],"split_indices":[21,6,5,22,4,11,13,0,0,0,0,0,0,0,0],"split_type":[0,0,0,0,0,0,0,0,0,0,0,0,0,0,0],"sum_hessian":[4.92E2,2.95E2,1.97E2,1.11E2,1.84E2,4.3E1,1.54E2,7.5E1,3.6E1,1.64E2,2E1,1.9E1,2.4E1,6.8E1,8.6E1],"tree_param":{"num_deleted":"0","num_feature":"35","num_nodes":"15","size_leaf_vector":"1"}},{"base_weights":[1.5158153E-3,1.748335E-1,-1.0186315E0,-1.2711073E-1,5.84634E-1,-1.4102325E0,-8.634816E-2,3.6960427E-4,-3.473564E-2,1.9719428E-3,1.4898024E-2,-3.50168E-2,6.117044E-3,-1.6207336E-2,4.1140313E-3],"categories":[],"categories_nodes":[],"categories_segments":[],"categories_sizes":[],"default_left":[0,0,0,0,0,0,0,0,0,0,0,0,0,0,0],"id":5,"left_children":[1,3,5,7,9,11,13,-1,-1,-1,-1,-1,-1,-1,-1],"loss_changes":[8.29665E1,5.0843327E1,2.3085533E1,5.6621227E1,1.256348E1,2.9988014E1,5.8013897E0,0E0,0E0,0E0,0E0,0E0,0E0,0E0,0E0],"parents":[2147483647,0,0,1,1,2,2,3,3,4,4,5,5,6,6],"right_children":[2,4,6,8,10,12,14,-1,-1,-1,-1,-1,-1,-1,-1],"split_conditions":[1.2478551E0,-3.7187132E-1,3.1596124E-1,1.1012493E0,-3.222594E-1,4.4621E-1,1.577939E0,3.6960427E-4,-3.473564E-2,1.9719428E-3,1.4898024E-2,-3.50168E-2,6.117044E-3,-1.6207336E-2,4.1140313E-3],"split_indices":[12,2,0,5,10,25,12,0,0,0,0,0,0,0,0],"split_type":[0,0,0,0,0,0,0,0,0,0,0,0,0,0,0],"sum_hessian":[4.7E2,4.04E2,6.6E1,2.32E2,1.72E2,4.5E1,2.1E1,2.14E2,1.8E1,4.5E1,1.27E2,3.8E1,7E0,6E0,1.5E1],"tree_param":{"num_deleted":"0","num_feature":"35","num_nodes":"15","size_leaf_vector":"1"}},{"base_weights":[-1.2090887E-2,-3.4138548E-1,4.8441958E-1,1.7924845E-1,-6.0849494E-1,-5.297034E-1,5.979035E-1,6.3647544E-3,-3.310205E-2,3.044435E-2,-1.39048165E-2,-2.2840488E-3,-3.0610504E-2,1.5539368E-2,-7.6391175E-4],"categories":[],"categories_nodes":[],"categories_segments":[],"categories_sizes":[],"default_left":[0,0,0,0,0,0,0,0,0,0,0,0,0,0,0],"id":6,"left_children":[1,3,5,7,9,11,13,-1,-1,-1,-1,-1,-1,-1,-1],"loss_changes":[8.111933E1,4.236726E1,2.3373692E1,2.5721987E1,3.8255775E1,6.322542E0,2.1186771E1,0E0,0E0,0E0,0E0,0E0,0E0,0E0,0E0],"parents":[2147483647,0,0,1,1,2,2,3,3,4,4,5,5,6,6],"right_children":[2,4,6,8,10,12,14,-1,-1,-1,-1,-1,-1,-1,-1],"split_conditions":[-3.1303155E-1,-3.568485E-2,-4.4918603E-1,1.1012493E0,-1.0496371E-1,6.4801824E-1,8.1323504E-1,6.3647544E-3,-3.310205E-2,3.044435E-2,-1.39048165E-2,-2.2840488E-3,-3.0610504E-2,1.5539368E-2,-7.6391175E-4],"split_indices":[2,19,19,5,15,2,13,0,0,0,0,0,0,0,0],"split_type":[0,0,0,0,0,0,0,0,0,0,0,0,0,0,0],"sum_hessian":[4.93E2,2.98E2,1.95E2,1E2,1.98E2,1.8E1,1.77E2,9.5E1,5E0,6E0,1.92E2,1.5E1,3E0,1.39E2,3.8E1],"tree_param":{"num_deleted":"0","num_feature":"35","num_nodes":"15","size_leaf_vector":"1"}},{"base_weights":[-1.4113599E-3,-3.2657713E-1,4.87075E-1,1.8792957E-1,-6.774888E-1,7.03859E-1,-0E0,7.674789E-3,-2.7514514E-2,-2.5947524E-2,-2.23366E-3,5.7973014E-3,2.0538263E-2,2.7913328E-3,-1.4550181E-2],"categories":[],"categories_nodes":[],"categories_segments":[],"categories_sizes":[],"default_left":[0,0,0,0,0,0,0,0,0,0,0,0,0,0,0],"id":7,"left_children":[1,3,5,7,9,11,13,-1,-1,-1,-1,-1,-1,-1,-1],"loss_changes":[7.624154E1,5.3102654E1,2.0081871E1,3.6192997E1,5.93292E1,1.574189E1,6.3250737E0,0E0,0E0,0E0,0E0,0E0,0E0,0E0,0E0],"parents":[2147483647,0,0,1,1,2,2,3,3,4,4,5,5,6,6],"right_children":[2,4,6,8,10,12,14,-1,-1,-1,-1,-1,-1,-1,-1],"split_conditions":[-3.7187132E-1,-1.1269225E-1,4.759665E-1,1.1012493E0,3.8254333E-1,4.126591E-1,4.7222388E-1,7.674789E-3,-2.7514514E-2,-2.5947524E-2,-2.23366E-3,5.7973014E-3,2.0538263E-2,2.7913328E-3,-1.4550181E-2],"split_indices":[2,6,12,5,0,2,18,0,0,0,0,0,0,0,0],"split_type":[0,0,0,0,0,0,0,0,0,0,0,0,0,0,0],"sum_hessian":[4.77E2,2.88E2,1.89E2,1.16E2,1.72E2,1.3E2,5.9E1,1.05E2,1.1E1,8E1,9.2E1,6E1,7E1,5.1E1,8E0],"tree_param":{"num_deleted":"0","num_feature":"35","num_nodes":"15","size_leaf_vector":"1"}},{"base_weights":[2.6210546E-2,-2.050244E-1,3.5930207E-1,-4.2219228E-1,3.872822E-1,4.547295E-1,-2.2366135E-1,-1.5741952E-2,6.8449613E-4,1.2965136E-2,-3.7361324E-2,6.89771E-3,2.1416947E-2,-2.1177532E-2,7.6504457E-3],"categories":[],"categories_nodes":[],"categories_segments":[],"categories_sizes":[],"default_left":[0,0,0,0,0,0,0,0,0,0,0,0,0,0,0],"id":8,"left_children":[1,3,5,7,9,11,13,-1,-1,-1,-1,-1,-1,-1,-1],"loss_changes":[3.7426407E1,3.6892838E1,1.1560617E1,3.5782047E1,4.593491E1,9.621403E0,1.5662669E1,0E0,0E0,0E0,0E0,0E0,0E0,0E0,0E0],"parents":[2147483647,0,0,1,1,2,2,3,3,4,4,5,5,6,6],"right_children":[2,4,6,8,10,12,14,-1,-1,-1,-1,-1,-1,-1,-1],"split_conditions":[-4.1385117E-1,4.3594116E-1,1.7401481E0,9.498601E-3,-5.4505277E-1,5.59531E-1,1.145944E0,-1.5741952E-2,6.8449613E-4,1.2965136E-2,-3.7361324E-2,6.89771E-3,2.1416947E-2,-2.1177532E-2,7.6504457E-3],"split_indices":[21,27,23,14,21,15,25,0,0,0,0,0,0,0,0],"split_type":[0,0,0,0,0,0,0,0,0,0,0,0,0,0,0],"sum_hessian":[4.8E2,2.82E2,1.98E2,2.08E2,7.4E1,1.72E2,2.6E1,1.16E2,9.2E1,6.8E1,6E0,1.5E2,2.2E1,1.1E1,1.5E1],"tree_param":{"num_deleted":"0","num_feature":"35","num_nodes":"15","size_leaf_vector":"1"}},{"base_weights":[3.1358603E-2,1.9394113E-1,-9.757805E-1,-9.453216E-1,3.224396E-1,-1.4912516E0,1.18945844E-1,-0E0,-3.0598097E-2,9.225619E-3,-8.612822E-3,-3.240224E-2,7.844009E-4,1.2667888E-2,-7.4972883E-3],"categories":[],"categories_nodes":[],"categories_segments":[],"categories_sizes":[],"default_left":[0,0,0,0,0,0,0,0,0,0,0,0,0,0,0],"id":9,"left_children":[1,3,5,7,9,11,13,-1,-1,-1,-1,-1,-1,-1,-1],"loss_changes":[8.032206E1,6.249678E1,4.0099457E1,2.4770218E1,4.078761E1,1.09771805E1,6.576324E0,0E0,0E0,0E0,0E0,0E0,0E0,0E0,0E0],"parents":[2147483647,0,0,1,1,2,2,3,3,4,4,5,5,6,6],"right_children":[2,4,6,8,10,12,14,-1,-1,-1,-1,-1,-1,-1,-1],"split_conditions":[1.2789218E0,-1.3306829E0,4.4621E-1,-4.4779068E-1,5.772932E-1,1.8720138E0,3.1596124E-1,-0E0,-3.0598097E-2,9.225619E-3,-8.612822E-3,-3.240224E-2,7.844009E-4,1.2667888E-2,-7.4972883E-3],"split_indices":[12,12,25,10,18,12,0,0,0,0,0,0,0,0,0],"split_type":[0,0,0,0,0,0,0,0,0,0,0,0,0,0,0],"sum_hessian":[4.91E2,4.25E2,6.6E1,4.1E1,3.84E2,4.5E1,2.1E1,1.6E1,2.5E1,3.26E2,5.8E1,4.2E1,3E0,1.1E1,1E1],"tree_param":{"num_deleted":"0","num_feature":"35","num_nodes":"15","size_leaf_vector":"1"}},{"base_weights":[3.209261E-2,3.7796256E-1,-1.8082042E-1,1.1989692E0,1.7837761E-1,-5.629149E-1,3.7539366E-1,2.688728E-2,-8.454399E-3,5.7078204E-3,-2.0138247E-2,-2.0856587E-2,-3.5770354E-3,-1.5064985E-2,9.636324E-3],"categories":[],"categories_nodes":[],"categories_segments":[],"categories_sizes":[],"default_left":[0,0,0,0,0,0,0,0,0,0,0,0,0,0,0],"id":10,"left_children":[1,3,5,7,9,11,13,-1,-1,-1,-1,-1,-1,-1,-1],"loss_changes":[3.7743057E1,3.0311588E1,6.7343414E1,1.0782269E1,2.0274757E1,3.305698E1,1.5828896E1,0E0,0E0,0E0,0E0,0E0,0E0,0E0,0E0],"parents":[2147483647,0,0,1,1,2,2,3,3,4,4,5,5,6,6],"right_children":[2,4,6,8,10,12,14,-1,-1,-1,-1,-1,-1,-1,-1],"split_conditions":[-1.1269225E-1,-2.2629714E-1,-3.9839193E-1,8.094368E-2,1.1012493E0,4.033499E-1,-2.4773674E-1,2.688728E-2,-8.454399E-3,5.7078204E-3,-2.0138247E-2,-2.0856587E-2,-3.5770354E-3,-1.5064985E-2,9.636324E-3],"split_indices":[6,3,17,19,5,1,19,0,0,0,0,0,0,0,0],"split_type":[0,0,0,0,0,0,0,0,0,0,0,0,0,0,0],"sum_hessian":[5.06E2,1.94E2,3.12E2,3.5E1,1.59E2,1.86E2,1.26E2,3.3E1,2E0,1.48E2,1.1E1,8E1,1.06E2,9E0,1.17E2],"tree_param":{"num_deleted":"0","num_feature":"35","num_nodes":"15","size_leaf_vector":"1"}},{"base_weights":[4.4423282E-2,-2.4904504E-1,4.8922756E-1,-8.156159E-2,-1.2664266E0,8.835268E-1,1.7441885E-1,-2.352187E-2,1.4773741E-3,-3.2531884E-2,5.2904785E-3,-3.3635797E-3,2.0170538E-2,5.645124E-3,-2.3999793E-2],"categories":[],"categories_nodes":[],"categories_segments":[],"categories_sizes":[],"default_left":[0,0,0,0,0,0,0,0,0,0,0,0,0,0,0],"id":11,"left_children":[1,3,5,7,9,11,13,-1,-1,-1,-1,-1,-1,-1,-1],"loss_changes":[6.483809E1,4.905262E1,2.321136E1,4.5167816E1,2.4829964E1,1.248542E1,1.6655903E1,0E0,0E0,0E0,0E0,0E0,0E0,0E0,0E0],"parents":[2147483647,0,0,1,1,2,2,3,3,4,4,5,5,6,6],"right_children":[2,4,6,8,10,12,14,-1,-1,-1,-1,-1,-1,-1,-1],"split_conditions":[-3.9839193E-1,1.6134865E0,2.6794454E-1,-1.3306829E0,1.7759894E0,-4.703912E-1,1.8201066E0,-2.352187E-2,1.4773741E-3,-3.2531884E-2,5.2904785E-3,-3.3635797E-3,2.0170538E-2,5.645124E-3,-2.3999793E-2],"split_indices":[17,12,27,12,12,19,22,0,0,0,0,0,0,0,0],"split_type":[0,0,0,0,0,0,0,0,0,0,0,0,0,0,0],"sum_hessian":[4.91E2,2.95E2,1.96E2,2.56E2,3.9E1,8.4E1,1.12E2,3.1E1,2.25E2,3.2E1,7E0,8E0,7.6E1,1.06E2,6E0],"tree_param":{"num_deleted":"0","num_feature":"35","num_nodes":"15","size_leaf_vector":"1"}},{"base_weights":[-3.8977012E-2,-3.1226122E-1,3.8348848E-1,-1.8170586E-1,-1.2394162E0,6.3111764E-1,-5.7360616E-2,-1.3845811E-2,1.4281529E-3,2.620053E-4,-3.0678874E-2,3.1030625E-3,2.0839738E-2,1.1399533E-2,-8.511083E-3],"categories":[],"categories_nodes":[],"categories_segments":[],"categories_sizes":[],"default_left":[0,0,0,0,0,0,0,0,0,0,0,0,0,0,0],"id":12,"left_children":[1,3,5,7,9,11,13,-1,-1,-1,-1,-1,-1,-1,-1],"loss_changes":[5.5585777E1,3.3715706E1,2.1169573E1,3.445032E1,1.4472557E1,2.2337753E1,1.6047434E1,0E0,0E0,0E0,0E0,0E0,0E0,0E0,0E0],"parents":[2147483647,0,0,1,1,2,2,3,3,4,4,5,5,6,6],"right_children":[2,4,6,8,10,12,14,-1,-1,-1,-1,-1,-1,-1,-1],"split_conditions":[-2.0842749E-1,1.6134865E0,4.090536E-1,-5.478015E-1,1.0832669E0,4.783198E-1,1.8789813E-1,-1.3845811E-2,1.4281529E-3,2.620053E-4,-3.0678874E-2,3.1030625E-3,2.0839738E-2,1.1399533E-2,-8.511083E-3],"split_indices":[2,12,12,12,13,21,13,0,0,0,0,0,0,0,0],"split_type":[0,0,0,0,0,0,0,0,0,0,0,0,0,0,0],"sum_hessian":[4.78E2,2.92E2,1.86E2,2.59E2,3.3E1,1.2E2,6.6E1,8.6E1,1.73E2,6E0,2.7E1,5.8E1,6.2E1,2.3E1,4.3E1],"tree_param":{"num_deleted":"0","num_feature":"35","num_nodes":"15","size_leaf_vector":"1"}},{"base_weights":[-3.5065557E-3,1.5417188E-1,-1.0744212E0,-1.6033791E-2,6.3652164E-1,-1.3775624E0,-2.652255E-1,-2.2010703E-2,2.249111E-3,4.183801E-3,1.9879742E-2,-3.381051E-2,-8.326981E-3,-9.471597E-3,8.1402063E-4],"categories":[],"categories_nodes":[],"categories_segments":[],"categories_sizes":[],"default_left":[0,0,0,0,0,0,0,0,0,0,0,0,0,0,0],"id":13,"left_children":[1,3,5,7,9,11,13,-1,-1,-1,-1,-1,-1,-1,-1],"loss_changes":[8.010922E1,3.4137154E1,1.2589813E1,4.3318356E1,1.4878635E1,9.420883E0,1.7462518E0,0E0,0E0,0E0,0E0,0E0,0E0,0E0,0E0],"parents":[2147483647,0,0,1,1,2,2,3,3,4,4,5,5,6,6],"right_children":[2,4,6,8,10,12,14,-1,-1,-1,-1,-1,-1,-1,-1],"split_conditions":[1.2789218E0,3.8650808E-1,2.798701E-1,-1.2871895E0,4.2537212E-2,1.4436485E-1,3.3805352E-1,-2.2010703E-2,2.249111E-3,4.183801E-3,1.9879742E-2,-3.381051E-2,-8.326981E-3,-9.471597E-3,8.1402063E-4],"split_indices":[12,2,23,12,14,7,20,0,0,0,0,0,0,0,0],"split_type":[0,0,0,0,0,0,0,0,0,0,0,0,0,0,0],"sum_hessian":[4.65E2,4.06E2,5.9E1,3E2,1.06E2,4.1E1,1.8E1,3.1E1,2.69E2,5.1E1,5.5E1,2.9E1,1.2E1,1.2E1,6E0],"tree_param":{"num_deleted":"0","num_feature":"35","num_nodes":"15","size_leaf_vector":"1"}},{"base_weights":[4.9362658E-3,1.0859029E-1,-1.0580175E0,-1.0223583E0,1.9191617E-1,3.1556693E-1,-1.495311E0,-2.9164743E-2,3.1840578E-3,6.214272E-3,-7.755376E-3,-0E0,1.7972173E-2,-3.265093E-2,-0E0],"categories":[],"categories_nodes":[],"categories_segments":[],"categories_sizes":[],"default_left":[0,0,0,0,0,0,0,0,0,0,0,0,0,0,0],"id":14,"left_children":[1,3,5,7,9,11,13,-1,-1,-1,-1,-1,-1,-1,-1],"loss_changes":[5.0954506E1,4.0084007E1,2.6750526E1,1.6698853E1,2.7916555E1,2.134583E0,5.7404633E0,0E0,0E0,0E0,0E0,0E0,0E0,0E0,0E0],"parents":[2147483647,0,0,1,1,2,2,3,3,4,4,5,5,6,6],"right_children":[2,4,6,8,10,12,14,-1,-1,-1,-1,-1,-1,-1,-1],"split_conditions":[1.6134865E0,-1.2871895E0,1.732812E-2,5.822896E-1,5.5102587E-1,4.2954487E-1,6.1159957E-2,-2.9164743E-2,3.1840578E-3,6.214272E-3,-7.755376E-3,-0E0,1.7972173E-2,-3.265093E-2,-0E0],"split_indices":[12,12,19,0,18,1,15,0,0,0,0,0,0,0,0],"split_type":[0,0,0,0,0,0,0,0,0,0,0,0,0,0,0],"sum_hessian":[4.67E2,4.28E2,3.9E1,2.7E1,4.01E2,9E0,3E1,2E1,7E0,3.35E2,6.6E1,7E0,2E0,2.7E1,3E0],"tree_param":{"num_deleted":"0","num_feature":"35","num_nodes":"15","size_leaf_vector":"1"}},{"base_weights":[3.2621596E-3,-3.028539E-1,4.2119294E-1,1.5582691E-1,-5.888258E-1,2.5732264E-1,9.153356E-1,-1.636222E-2,1.1755564E-2,6.2344675E-3,-1.6253883E-2,2.0687436E-3,1.7075785E-2,2.1435251E-2,-5.8586715E-4],"categories":[],"categories_nodes":[],"categories_segments":[],"categories_sizes":[],"default_left":[0,0,0,0,0,0,0,0,0,0,0,0,0,0,0],"id":15,"left_children":[1,3,5,7,9,11,13,-1,-1,-1,-1,-1,-1,-1,-1],"loss_changes":[6.2038284E1,3.7081722E1,1.5037178E1,4.5745644E1,3.588521E1,1.3460366E1,8.345772E0,0E0,0E0,0E0,0E0,0E0,0E0,0E0,0E0],"parents":[2147483647,0,0,1,1,2,2,3,3,4,4,5,5,6,6],"right_children":[2,4,6,8,10,12,14,-1,-1,-1,-1,-1,-1,-1,-1],"split_conditions":[-1.8284689E-1,-1.1269225E-1,1.09881E0,8.5547656E-2,-3.748234E-1,1.3884655E0,1.1211507E0,-1.636222E-2,1.1755564E-2,6.2344675E-3,-1.6253883E-2,2.0687436E-3,1.7075785E-2,2.1435251E-2,-5.8586715E-4],"split_indices":[17,6,11,26,11,25,14,0,0,0,0,0,0,0,0],"split_type":[0,0,0,0,0,0,0,0,0,0,0,0,0,0,0],"sum_hessian":[4.8E2,2.76E2,2.04E2,1.05E2,1.71E2,1.57E2,4.7E1,3.1E1,7.4E1,3.3E1,1.38E2,1.28E2,2.9E1,4.1E1,6E0],"tree_param":{"num_deleted":"0","num_feature":"35","num_nodes":"15","size_leaf_vector":"1"}},{"base_weights":[5.8344837E-2,1.7433138E-1,-7.098425E-1,-7.0567495E-1,2.7201965E-1,-1.278496E0,2.7264327E-1,5.558672E-3,-2.0828558E-2,8.196015E-3,-7.79931E-3,-2.984935E-2,2.1799756E-2,1.6607823E-2,-2.5340676E-4],"categories":[],"categories_nodes":[],"categories_segments":[],"categories_sizes":[],"default_left":[0,0,0,0,0,0,0,0,0,0,0,0,0,0,0],"id":16,"left_children":[1,3,5,7,9,11,13,-1,-1,-1,-1,-1,-1,-1,-1],"loss_changes":[4.0965004E1,3.4766605E1,3.522464E1,1.4552368E1,3.381318E1,2.3420757E1,4.4988246E0,0E0,0E0,0E0,0E0,0E0,0E0,0E0,0E0],"parents":[2147483647,0,0,1,1,2,2,3,3,4,4,5,5,6,6],"right_children":[2,4,6,8,10,12,14,-1,-1,-1,-1,-1,-1,-1,-1],"split_conditions":[1.2789218E0,-1.2871895E0,1.419471E-1,-1.6001745E0,1.0585847E0,5.24738E-1,1.0254029E0,5.558672E-3,-2.0828558E-2,8.196015E-3,-7.79931E-3,-2.984935E-2,2.1799756E-2,1.6607823E-2,-2.5340676E-4],"split_indices":[12,12,27,13,10,20,13,0,0,0,0,0,0,0,0],"split_type":[0,0,0,0,0,0,0,0,0,0,0,0,0,0,0],"sum_hessian":[4.61E2,4.03E2,5.8E1,3.8E1,3.65E2,3.7E1,2.1E1,9E0,2.9E1,3.04E2,6.1E1,3.5E1,2E0,7E0,1.4E1],"tree_param":{"num_deleted":"0","num_feature":"35","num_nodes":"15","size_leaf_vector":"1"}},{"base_weights":[2.504212E-2,-5.3580146E-2,7.7045E-1,-1.8282573E-1,4.3938795E-1,9.8957664E-1,-4.4757706E-1,-9.787729E-3,4.6791066E-3,3.338849E-2,5.371098E-3,2.5775244E-2,4.250819E-3,-1.4134612E-2,-0E0],"categories":[],"categories_nodes":[],"categories_segments":[],"categories_sizes":[],"default_left":[0,0,0,0,0,0,0,0,0,0,0,0,0,0,0],"id":17,"left_children":[1,3,5,7,9,11,13,-1,-1,-1,-1,-1,-1,-1,-1],"loss_changes":[2.9457598E1,2.812938E1,1.4239122E1,4.5714542E1,1.6287268E1,7.714939E0,3.9527082E-1,0E0,0E0,0E0,0E0,0E0,0E0,0E0,0E0],"parents":[2147483647,0,0,1,1,2,2,3,3,4,4,5,5,6,6],"right_children":[2,4,6,8,10,12,14,-1,-1,-1,-1,-1,-1,-1,-1],"split_conditions":[8.8233644E-1,6.0145617E-1,4.6883726E-1,1.9121097E-1,-8.278122E-1,6.6134495E-1,1.0585847E0,-9.787729E-3,4.6791066E-3,3.338849E-2,5.371098E-3,2.5775244E-2,4.250819E-3,-1.4134612E-2,-0E0],"split_indices":[4,9,1,14,1,24,10,0,0,0,0,0,0,0,0],"split_type":[0,0,0,0,0,0,0,0,0,0,0,0,0,0,0],"sum_hessian":[4.87E2,4.41E2,4.6E1,3.52E2,8.9E1,4E1,6E0,2.04E2,1.48E2,8E0,8.1E1,2.7E1,1.3E1,2E0,4E0],"tree_param":{"num_deleted":"0","num_feature":"35","num_nodes":"15","size_leaf_vector":"1"}},{"base_weights":[-2.680406E-2,-2.394493E-1,6.5282756E-1,-7.915168E-2,-1.1233019E0,9.8199517E-1,7.492268E-2,-2.2044927E-2,7.110728E-4,-2.7894258E-2,6.082627E-3,2.3837242E-2,3.288192E-3,-2.7012192E-2,5.297414E-3],"categories":[],"categories_nodes":[],"categories_segments":[],"categories_sizes":[],"default_left":[0,0,0,0,0,0,0,0,0,0,0,0,0,0,0],"id":18,"left_children":[1,3,5,7,9,11,13,-1,-1,-1,-1,-1,-1,-1,-1],"loss_changes":[6.999167E1,5.1324486E1,2.06721E1,3.8463768E1,2.3634514E1,1.0605888E1,1.1814702E1,0E0,0E0,0E0,0E0,0E0,0E0,0E0,0E0],"parents":[2147483647,0,0,1,1,2,2,3,3,4,4,5,5,6,6],"right_children":[2,4,6,8,10,12,14,-1,-1,-1,-1,-1,-1,-1,-1],"split_conditions":[4.9252754E-1,1.2478551E0,4.759665E-1,-1.2871895E0,-2.3278455E-1,1.1079276E0,-3.578428E-1,-2.2044927E-2,7.110728E-4,-2.7894258E-2,6.082627E-3,2.3837242E-2,3.288192E-3,-2.7012192E-2,5.297414E-3],"split_indices":[17,12,12,12,14,27,27,0,0,0,0,0,0,0,0],"split_type":[0,0,0,0,0,0,0,0,0,0,0,0,0,0,0],"sum_hessian":[4.83E2,3.7E2,1.13E2,3.16E2,5.4E1,7E1,4.3E1,3.1E1,2.85E2,4.6E1,8E0,5.4E1,1.6E1,3E0,4E1],"tree_param":{"num_deleted":"0","num_feature":"35","num_nodes":"15","size_leaf_vector":"1"}},{"base_weights":[-4.8211057E-2,-2.5735566E-1,5.822511E-1,-1.6567084E-1,-1.3627894E0,8.535782E-1,1.6995615E-1,-8.899051E-3,5.712515E-3,-0E0,-3.3913676E-2,-0E0,2.222372E-2,-7.080455E-3,1.438646E-2],"categories":[],"categories_nodes":[],"categories_segments":[],"categories_sizes":[],"default_left":[0,0,0,0,0,0,0,0,0,0,0,0,0,0,0],"id":19,"left_children":[1,3,5,7,9,11,13,-1,-1,-1,-1,-1,-1,-1,-1],"loss_changes":[6.168422E1,3.3898415E1,1.166288E1,4.200634E1,1.2095146E1,1.4661667E1,1.5267446E1,0E0,0E0,0E0,0E0,0E0,0E0,0E0,0E0],"parents":[2147483647,0,0,1,1,2,2,3,3,4,4,5,5,6,6],"right_children":[2,4,6,8,10,12,14,-1,-1,-1,-1,-1,-1,-1,-1],"split_conditions":[4.059327E-1,1.1012493E0,-6.0397405E-2,4.1644737E-1,-1.1202427E0,1.5022413E-1,1.1275147E-1,-8.899051E-3,5.712515E-3,-0E0,-3.3913676E-2,-0E0,2.222372E-2,-7.080455E-3,1.438646E-2],"split_indices":[21,5,13,1,26,5,19,0,0,0,0,0,0,0,0],"split_type":[0,0,0,0,0,0,0,0,0,0,0,0,0,0,0],"sum_hessian":[4.66E2,3.52E2,1.14E2,3.28E2,2.4E1,6.6E1,4.8E1,2.04E2,1.24E2,5E0,1.9E1,1.6E1,5E1,2.4E1,2.4E1],"tree_param":{"num_deleted":"0","num_feature":"35","num_nodes":"15","size_leaf_vector":"1"}},{"base_weights":[-3.5559442E-2,7.992903E-2,-9.3167645E-1,-3.728223E-1,2.8470778E-1,-6.798047E-4,-1.5593988E0,-3.5774026E-2,-3.2243826E-3,-8.846193E-3,7.230876E-3,-1.3333261E-2,8.727852E-3,-3.431034E-2,-0E0],"categories":[],"categories_nodes":[],"categories_segments":[],"categories_sizes":[],"default_left":[0,0,0,0,0,0,0,0,0,0,0,0,0,0,0],"id":20,"left_children":[1,3,5,7,9,11,13,-1,-1,-1,-1,-1,-1,-1,-1],"loss_changes":[5.2539295E1,4.11037E1,3.233344E1,3.851915E1,1.738843E1,8.380279E0,8.554337E0,0E0,0E0,0E0,0E0,0E0,0E0,0E0,0E0],"parents":[2147483647,0,0,1,1,2,2,3,3,4,4,5,5,6,6],"right_children":[2,4,6,8,10,12,14,-1,-1,-1,-1,-1,-1,-1,-1],"split_conditions":[1.2789218E0,-3.66682E-1,1.732812E-2,3.0016595E-1,-1.3306829E0,3.6199325E-1,1.6703625E0,-3.5774026E-2,-3.2243826E-3,-8.846193E-3,7.230876E-3,-1.3333261E-2,8.727852E-3,-3.431034E-2,-0E0],"split_indices":[12,26,19,9,12,11,12,0,0,0,0,0,0,0,0],"split_type":[0,0,0,0,0,0,0,0,0,0,0,0,0,0,0],"sum_hessian":[4.96E2,4.4E2,5.6E1,1.35E2,3.05E2,2.4E1,3.2E1,1.5E1,1.2E2,2.7E1,2.78E2,1E1,1.4E1,2.9E1,3E0],"tree_param":{"num_deleted":"0","num_feature":"35","num_nodes":"15","size_leaf_vector":"1"}},{"base_weights":[5.5483613E-2,-2.2205782E-1,4.8123956E-1,-5.3603202E-2,-1.1731652E0,7.93572E-1,2.3603603E-1,-8.042103E-3,8.662421E-3,-2.7495623E-2,7.906602E-3,4.706274E-3,2.3246305E-2,1.0935789E-2,-1.4194598E-3],"categories":[],"categories_nodes":[],"categories_segments":[],"categories_sizes":[],"default_left":[0,0,0,0,0,0,0,0,0,0,0,0,0,0,0],"id":21,"left_children":[1,3,5,7,9,11,13,-1,-1,-1,-1,-1,-1,-1,-1],"loss_changes":[5.8846382E1,4.6552765E1,1.3683022E1,4.3910763E1,1.5980728E1,1.534708E1,1.1524904E1,0E0,0E0,0E0,0E0,0E0,0E0,0E0,0E0],"parents":[2147483647,0,0,1,1,2,2,3,3,4,4,5,5,6,6],"right_children":[2,4,6,8,10,12,14,-1,-1,-1,-1,-1,-1,-1,-1],"split_conditions":[-3.1303155E-1,1.2789218E0,2.6794454E-1,7.780641E-2,4.1644737E-1,3.5599646E-1,3.3815527E-1,-8.042103E-3,8.662421E-3,-2.7495623E-2,7.906602E-3,4.706274E-3,2.3246305E-2,1.0935789E-2,-1.4194598E-3],"split_indices":[2,12,27,26,1,16,0,0,0,0,0,0,0,0,0],"split_type":[0,0,0,0,0,0,0,0,0,0,0,0,0,0,0],"sum_hessian":[4.92E2,2.97E2,1.95E2,2.55E2,4.2E1,8.2E1,1.13E2,1.5E2,1.05E2,3.8E1,4E0,3.5E1,4.7E1,5.7E1,5.6E1],"tree_param":{"num_deleted":"0","num_feature":"35","num_nodes":"15","size_leaf_vector":"1"}},{"base_weights":[-4.6331495E-2,1.00038745E-1,-1.0288982E0,-5.846954E-1,2.6488534E-1,-2.3588286E-1,-1.4910194E0,-6.2787244E-3,-3.6681954E-2,-1.4412608E-2,7.4103624E-3,-2.2028957E-2,5.86232E-3,-3.4047134E-2,-9.176059E-3],"categories":[],"categories_nodes":[],"categories_segments":[],"categories_sizes":[],"default_left":[0,0,0,0,0,0,0,0,0,0,0,0,0,0,0],"id":22,"left_children":[1,3,5,7,9,11,13,-1,-1,-1,-1,-1,-1,-1,-1],"loss_changes":[6.872943E1,4.6269146E1,2.0290771E1,2.3425066E1,3.485013E1,1.3358991E1,4.566292E0,0E0,0E0,0E0,0E0,0E0,0E0,0E0,0E0],"parents":[2147483647,0,0,1,1,2,2,3,3,4,4,5,5,6,6],"right_children":[2,4,6,8,10,12,14,-1,-1,-1,-1,-1,-1,-1,-1],"split_conditions":[1.2789218E0,-8.870321E-1,9.745652E-1,1.1012493E0,-1.2871895E0,3.2748646E-1,1.8394625E-1,-6.2787244E-3,-3.6681954E-2,-1.4412608E-2,7.4103624E-3,-2.2028957E-2,5.86232E-3,-3.4047134E-2,-9.176059E-3],"split_indices":[12,27,26,5,12,20,27,0,0,0,0,0,0,0,0],"split_type":[0,0,0,0,0,0,0,0,0,0,0,0,0,0,0],"sum_hessian":[4.68E2,4.08E2,6E1,7.7E1,3.31E2,2.4E1,3.6E1,6.6E1,1.1E1,3E1,3.01E2,9E0,1.5E1,2.8E1,8E0],"tree_param":{"num_deleted":"0","num_feature":"35","num_nodes":"15","size_leaf_vector":"1"}},{"base_weights":[-7.418557E-3,1.0709924E-1,-7.460629E-1,2.4762057E-1,-6.08371E-1,-1.0896494E0,1.3750972E-1,-1.268814E-2,6.800514E-3,5.532265E-3,-2.2077356E-2,-2.714588E-2,3.047754E-3,-5.9028226E-4,2.1407241E-2],"categories":[],"categories_nodes":[],"categories_segments":[],"categories_sizes":[],"default_left":[0,0,0,0,0,0,0,0,0,0,0,0,0,0,0],"id":23,"left_children":[1,3,5,7,9,11,13,-1,-1,-1,-1,-1,-1,-1,-1],"loss_changes":[4.2754375E1,4.3172237E1,2.18955E1,2.9641459E1,3.2133415E1,1.8239807E1,4.220201E0,0E0,0E0,0E0,0E0,0E0,0E0,0E0,0E0],"parents":[2147483647,0,0,1,1,2,2,3,3,4,4,5,5,6,6],"right_children":[2,4,6,8,10,12,14,-1,-1,-1,-1,-1,-1,-1,-1],"split_conditions":[1.2478551E0,5.5102587E-1,-5.356385E-1,-1.3306829E0,4.097671E-1,1.6703625E0,4.1644737E-1,-1.268814E-2,6.800514E-3,5.532265E-3,-2.2077356E-2,-2.714588E-2,3.047754E-3,-5.9028226E-4,2.1407241E-2],"split_indices":[12,18,14,12,16,12,1,0,0,0,0,0,0,0,0],"split_type":[0,0,0,0,0,0,0,0,0,0,0,0,0,0,0],"sum_hessian":[4.94E2,4.28E2,6.6E1,3.6E2,6.8E1,4.8E1,1.8E1,3.2E1,3.28E2,2.4E1,4.4E1,4E1,8E0,1.6E1,2E0],"tree_param":{"num_deleted":"0","num_feature":"35","num_nodes":"15","size_leaf_vector":"1"}},{"base_weights":[-2.4182476E-2,1.0897777E-1,-9.6994543E-1,-6.83458E-2,4.7047755E-1,-1.3394591E0,2.505232E-1,-5.0652167E-3,9.4327135E-3,1.6786812E-2,-1.5709093E-3,-3.126493E-2,-6.857417E-3,-1.0761823E-2,1.2413839E-2],"categories":[],"categories_nodes":[],"categories_segments":[],"categories_sizes":[],"default_left":[0,0,0,0,0,0,0,0,0,0,0,0,0,0,0],"id":24,"left_children":[1,3,5,7,9,11,13,-1,-1,-1,-1,-1,-1,-1,-1],"loss_changes":[6.1144814E1,2.7325363E1,2.8818851E1,2.8078566E1,2.9244646E1,7.504036E0,5.129384E0,0E0,0E0,0E0,0E0,0E0,0E0,0E0,0E0],"parents":[2147483647,0,0,1,1,2,2,3,3,4,4,5,5,6,6],"right_children":[2,4,6,8,10,12,14,-1,-1,-1,-1,-1,-1,-1,-1],"split_conditions":[1.2478551E0,5.346392E-1,1.6703625E0,9.8572534E-1,3.4606507E-1,3.099437E-1,-1.2595855E0,-5.0652167E-3,9.4327135E-3,1.6786812E-2,-1.5709093E-3,-3.126493E-2,-6.857417E-3,-1.0761823E-2,1.2413839E-2],"split_indices":[12,27,12,22,6,27,6,0,0,0,0,0,0,0,0],"split_type":[0,0,0,0,0,0,0,0,0,0,0,0,0,0,0],"sum_hessian":[4.75E2,4.17E2,5.8E1,2.79E2,1.38E2,4.5E1,1.3E1,2.1E2,6.9E1,8.3E1,5.5E1,3.5E1,1E1,3E0,1E1],"tree_param":{"num_deleted":"0","num_feature":"35","num_nodes":"15","size_leaf_vector":"1"}},{"base_weights":[5.6929257E-2,1.7578326E-1,-1.0017239E0,3.0159035E-1,-4.636105E-1,5.0367814E-1,-1.3529882E0,4.5107827E-3,2.4805905E-2,-2.8396135E-2,-1.3283808E-3,-0E0,1.8722167E-2,-3.166477E-2,8.394881E-4],"categories":[],"categories_nodes":[],"categories_segments":[],"categories_sizes":[],"default_left":[0,0,0,0,0,0,0,0,0,0,0,0,0,0,0],"id":25,"left_children":[1,3,5,7,9,11,13,-1,-1,-1,-1,-1,-1,-1,-1],"loss_changes":[6.0048138E1,3.5109135E1,2.7594368E1,2.4103306E1,2.5290474E1,1.844578E0,1.4521797E1,0E0,0E0,0E0,0E0,0E0,0E0,0E0,0E0],"parents":[2147483647,0,0,1,1,2,2,3,3,4,4,5,5,6,6],"right_children":[2,4,6,8,10,12,14,-1,-1,-1,-1,-1,-1,-1,-1],"split_conditions":[1.6134865E0,1.3693709E0,6.2758815E-1,4.8246983E-1,-6.299557E-1,6.0145617E-1,-6.006927E-1,4.5107827E-3,2.4805905E-2,-2.8396135E-2,-1.3283808E-3,-0E0,1.8722167E-2,-3.166477E-2,8.394881E-4],"split_indices":[12,7,13,20,12,9,2,0,0,0,0,0,0,0,0],"split_type":[0,0,0,0,0,0,0,0,0,0,0,0,0,0,0],"sum_hessian":[4.79E2,4.33E2,4.6E1,3.64E2,6.9E1,8E0,3.8E1,3.4E2,2.4E1,1.8E1,5.1E1,5E0,3E0,3.3E1,5E0],"tree_param":{"num_deleted":"0","num_feature":"35","num_nodes":"15","size_leaf_vector":"1"}},{"base_weights":[1.1737821E-2,1.3781871E-1,-1.0202463E0,-2.3046354E-2,6.320192E-1,8.650347E-2,-1.3262589E0,-4.2828475E-3,8.539418E-3,1.7068982E-2,-9.303919E-3,7.515894E-3,-8.599526E-3,-2.9893953E-2,-0E0],"categories":[],"categories_nodes":[],"categories_segments":[],"categories_sizes":[],"default_left":[0,0,0,0,0,0,0,0,0,0,0,0,0,0,0],"id":26,"left_children":[1,3,5,7,9,11,13,-1,-1,-1,-1,-1,-1,-1,-1],"loss_changes":[5.9901543E1,3.378944E1,1.8403187E1,2.7058939E1,2.6449753E1,2.0619411E0,1.0069855E1,0E0,0E0,0E0,0E0,0E0,0E0,0E0,0E0],"parents":[2147483647,0,0,1,1,2,2,3,3,4,4,5,5,6,6],"right_children":[2,4,6,8,10,12,14,-1,-1,-1,-1,-1,-1,-1,-1],"split_conditions":[1.553617E0,6.9003606E-1,-6.055279E-1,8.914953E-1,4.984912E-1,7.133958E-1,-5.3531516E-1,-4.2828475E-3,8.539418E-3,1.7068982E-2,-9.303919E-3,7.515894E-3,-8.599526E-3,-2.9893953E-2,-0E0],"split_indices":[12,27,14,25,18,2,2,0,0,0,0,0,0,0,0],"split_type":[0,0,0,0,0,0,0,0,0,0,0,0,0,0,0],"sum_hessian":[4.63E2,4.15E2,4.8E1,3.13E2,1.02E2,1E1,3.8E1,2.22E2,9.1E1,8.6E1,1.6E1,8E0,2E0,3.4E1,4E0],"tree_param":{"num_deleted":"0","num_feature":"35","num_nodes":"15","size_leaf_vector":"1"}},{"base_weights":[-1.6196584E-2,-2.5038138E-1,3.1868565E-1,2.4124488E-1,-5.3826416E-1,1.6931249E-1,8.9810187E-1,-5.130798E-3,1.4962176E-2,-1.4050242E-2,1.2703821E-2,1.7563064E-3,2.711408E-2,-8.2189695E-4,2.1172134E-2],"categories":[],"categories_nodes":[],"categories_segments":[],"categories_sizes":[],"default_left":[0,0,0,0,0,0,0,0,0,0,0,0,0,0,0],"id":27,"left_children":[1,3,5,7,9,11,13,-1,-1,-1,-1,-1,-1,-1,-1],"loss_changes":[4.008769E1,4.344054E1,1.6717255E1,2.913403E1,3.8158142E1,1.475526E1,7.2850876E0,0E0,0E0,0E0,0E0,0E0,0E0,0E0,0E0],"parents":[2147483647,0,0,1,1,2,2,3,3,4,4,5,5,6,6],"right_children":[2,4,6,8,10,12,14,-1,-1,-1,-1,-1,-1,-1,-1],"split_conditions":[-3.9839193E-1,-1.1269225E-1,1.09881E0,-8.008282E-1,8.8233644E-1,1.1012493E0,9.017682E-2,-5.130798E-3,1.4962176E-2,-1.4050242E-2,1.2703821E-2,1.7563064E-3,2.711408E-2,-8.2189695E-4,2.1172134E-2],"split_indices":[17,6,11,6,4,5,17,0,0,0,0,0,0,0,0],"split_type":[0,0,0,0,0,0,0,0,0,0,0,0,0,0,0],"sum_hessian":[5.08E2,3.01E2,2.07E2,1.1E2,1.91E2,1.68E2,3.9E1,5.5E1,5.5E1,1.69E2,2.2E1,1.6E2,8E0,5E0,3.4E1],"tree_param":{"num_deleted":"0","num_feature":"35","num_nodes":"15","size_leaf_vector":"1"}},{"base_weights":[-3.3000737E-2,-4.4197813E-1,9.692089E-2,-1.8688188E0,-3.283142E-1,1.9281942E-1,-3.6697865E-1,-0E0,-4.0890265E-2,1.6273784E-3,-1.4737842E-2,5.2784234E-3,-2.1009773E-3,-2.4897194E-2,1.1149122E-2],"categories":[],"categories_nodes":[],"categories_segments":[],"categories_sizes":[],"default_left":[0,0,0,0,0,0,0,0,0,0,0,0,0,0,0],"id":28,"left_children":[1,3,5,7,9,11,13,-1,-1,-1,-1,-1,-1,-1,-1],"loss_changes":[2.705137E1,1.6523928E1,1.6872528E1,1.3203716E0,2.035978E1,6.94923E0,5.401412E1,0E0,0E0,0E0,0E0,0E0,0E0,0E0,0E0],"parents":[2147483647,0,0,1,1,2,2,3,3,4,4,5,5,6,6],"right_children":[2,4,6,8,10,12,14,-1,-1,-1,-1,-1,-1,-1,-1],"split_conditions":[-5.533487E-1,-1.5206116E0,1.270212E0,-6.006927E-1,-1.1728883E0,1.3693709E0,1.4073051E0,-0E0,-4.0890265E-2,1.6273784E-3,-1.4737842E-2,5.2784234E-3,-2.1009773E-3,-2.4897194E-2,1.1149122E-2],"split_indices":[26,13,13,2,26,7,13,0,0,0,0,0,0,0,0],"split_type":[0,0,0,0,0,0,0,0,0,0,0,0,0,0,0],"sum_hessian":[4.99E2,1.21E2,3.78E2,6E0,1.15E2,3.16E2,6.2E1,1E0,5E0,5.7E1,5.8E1,2.58E2,5.8E1,3.2E1,3E1],"tree_param":{"num_deleted":"0","num_feature":"35","num_nodes":"15","size_leaf_vector":"1"}},{"base_weights":[-1.2148665E-3,-1.7652054E-1,4.6800607E-1,-1.239397E0,-7.9603486E-2,8.1587917E-1,-9.688565E-2,-0E0,-3.1473387E-2,2.9077887E-4,-2.5536712E-2,2.8367184E-2,1.0419663E-2,-2.7404219E-2,3.791195E-4],"categories":[],"categories_nodes":[],"categories_segments":[],"categories_sizes":[],"default_left":[0,0,0,0,0,0,0,0,0,0,0,0,0,0,0],"id":29,"left_children":[1,3,5,7,9,11,13,-1,-1,-1,-1,-1,-1,-1,-1],"loss_changes":[4.0097458E1,3.5464577E1,2.6816494E1,1.2410973E1,3.8719257E1,1.1329296E1,8.925912E0,0E0,0E0,0E0,0E0,0E0,0E0,0E0,0E0],"parents":[2147483647,0,0,1,1,2,2,3,3,4,4,5,5,6,6],"right_children":[2,4,6,8,10,12,14,-1,-1,-1,-1,-1,-1,-1,-1],"split_conditions":[4.0612134E-1,-1.2871895E0,4.090536E-1,1.8279709E-1,2.0522745E0,5.761029E-1,-3.578428E-1,-0E0,-3.1473387E-2,2.9077887E-4,-2.5536712E-2,2.8367184E-2,1.0419663E-2,-2.7404219E-2,3.791195E-4],"split_indices":[2,12,12,0,5,2,27,0,0,0,0,0,0,0,0],"split_type":[0,0,0,0,0,0,0,0,0,0,0,0,0,0,0],"sum_hessian":[4.87E2,3.57E2,1.3E2,2.7E1,3.3E2,8.1E1,4.9E1,6E0,2.1E1,3.07E2,2.3E1,2.3E1,5.8E1,3E0,4.6E1],"tree_param":{"num_deleted":"0","num_feature":"35","num_nodes":"15","size_leaf_vector":"1"}},{"base_weights":[-2.1059696E-2,-2.3220614E-1,2.612976E-1,2.3438826E-1,-5.3631485E-1,-7.1392316E-1,3.8114604E-1,1.2361792E-2,-8.155098E-3,-2.210294E-3,-1.6358133E-2,1.3733029E-3,-2.1569537E-2,1.2295231E-2,2.2994163E-3],"categories":[],"categories_nodes":[],"categories_segments":[],"categories_sizes":[],"default_left":[0,0,0,0,0,0,0,0,0,0,0,0,0,0,0],"id":30,"left_children":[1,3,5,7,9,11,13,-1,-1,-1,-1,-1,-1,-1,-1],"loss_changes":[2.85304E1,3.9716476E1,2.3937813E1,2.7571032E1,1.9154213E1,7.4344206E0,1.0508337E1,0E0,0E0,0E0,0E0,0E0,0E0,0E0,0E0],"parents":[2147483647,0,0,1,1,2,2,3,3,4,4,5,5,6,6],"right_children":[2,4,6,8,10,12,14,-1,-1,-1,-1,-1,-1,-1,-1],"split_conditions":[-4.0557677E-1,-1.1269225E-1,-4.0677565E-1,-5.636431E-1,3.4862056E-1,9.017682E-2,3.3815527E-1,1.2361792E-2,-8.155098E-3,-2.210294E-3,-1.6358133E-2,1.3733029E-3,-2.1569537E-2,1.2295231E-2,2.2994163E-3],"split_indices":[17,6,19,17,20,17,0,0,0,0,0,0,0,0,0],"split_type":[0,0,0,0,0,0,0,0,0,0,0,0,0,0,0],"sum_hessian":[4.75E2,2.74E2,2.01E2,1.07E2,1.67E2,2E1,1.81E2,6.8E1,3.9E1,6.9E1,9.8E1,6E0,1.4E1,9.3E1,8.8E1],"tree_param":{"num_deleted":"0","num_feature":"35","num_nodes":"15","size_leaf_vector":"1"}},{"base_weights":[2.8470373E-2,1.3001283E-1,-8.490011E-1,2.083894E-1,-6.5876657E-1,-1.0891031E0,4.0238667E-1,1.2155445E-2,1.6342284E-3,-2.6549945E-2,3.0258495E-2,4.1179024E-3,-2.6614577E-2,1.5926272E-2,-0E0],"categories":[],"categories_nodes":[],"categories_segments":[],"categories_sizes":[],"default_left":[0,0,0,0,0,0,0,0,0,0,0,0,0,0,0],"id":31,"left_children":[1,3,5,7,9,11,13,-1,-1,-1,-1,-1,-1,-1,-1],"loss_changes":[4.3962975E1,2.7644007E1,1.6886692E1,2.0055515E1,6.1922436E1,1.5440632E1,1.7133421E0,0E0,0E0,0E0,0E0,0E0,0E0,0E0,0E0],"parents":[2147483647,0,0,1,1,2,2,3,3,4,4,5,5,6,6],"right_children":[2,4,6,8,10,12,14,-1,-1,-1,-1,-1,-1,-1,-1],"split_conditions":[1.6134865E0,1.1012493E0,1.8720138E0,-2.2629714E-1,4.0007148E-2,1.0832669E0,-3.420709E-1,1.2155445E-2,1.6342284E-3,-2.6549945E-2,3.0258495E-2,4.1179024E-3,-2.6614577E-2,1.5926272E-2,-0E0],"split_indices":[12,5,12,3,2,13,6,0,0,0,0,0,0,0,0],"split_type":[0,0,0,0,0,0,0,0,0,0,0,0,0,0,0],"sum_hessian":[4.97E2,4.48E2,4.9E1,4.1E2,3.8E1,4.2E1,7E0,9.5E1,3.15E2,3E1,8E0,6E0,3.6E1,3E0,4E0],"tree_param":{"num_deleted":"0","num_feature":"35","num_nodes":"15","size_leaf_vector":"1"}},{"base_weights":[-1.0510266E-2,-2.6830962E-1,3.375837E-1,-4.011909E-1,3.864431E-1,2.09326E-1,9.1452605E-1,-1.7256873E-2,-2.3197217E-3,1.4854395E-2,-8.594563E-3,9.181361E-4,1.7098457E-2,-1.187654E-3,2.376371E-2],"categories":[],"categories_nodes":[],"categories_segments":[],"categories_sizes":[],"default_left":[0,0,0,0,0,0,0,0,0,0,0,0,0,0,0],"id":32,"left_children":[1,3,5,7,9,11,13,-1,-1,-1,-1,-1,-1,-1,-1],"loss_changes":[4.4352905E1,2.520808E1,1.3958715E1,3.0420765E1,1.4908901E1,1.7483688E1,1.086462E1,0E0,0E0,0E0,0E0,0E0,0E0,0E0,0E0],"parents":[2147483647,0,0,1,1,2,2,3,3,4,4,5,5,6,6],"right_children":[2,4,6,8,10,12,14,-1,-1,-1,-1,-1,-1,-1,-1],"split_conditions":[-3.9839193E-1,6.0145617E-1,1.09881E0,1.50994295E-2,5.772932E-1,1.3884655E0,9.017682E-2,-1.7256873E-2,-2.3197217E-3,1.4854395E-2,-8.594563E-3,9.181361E-4,1.7098457E-2,-1.187654E-3,2.376371E-2],"split_indices":[17,9,11,26,18,25,17,0,0,0,0,0,0,0,0],"split_type":[0,0,0,0,0,0,0,0,0,0,0,0,0,0,0],"sum_hessian":[4.91E2,2.84E2,2.07E2,2.38E2,4.6E1,1.73E2,3.4E1,8.8E1,1.5E2,3.3E1,1.3E1,1.41E2,3.2E1,7E0,2.7E1],"tree_param":{"num_deleted":"0","num_feature":"35","num_nodes":"15","size_leaf_vector":"1"}},{"base_weights":[-6.67936E-2,3.9004717E-2,-8.1282413E-1,-4.4038603E-1,1.8285543E-1,-1.2471447E0,-0E0,-1.8070137E-2,2.4600204E-3,-1.6777096E-2,5.931991E-3,-2.9638465E-2,8.994109E-3,6.5472703E-3,-5.863147E-3],"categories":[],"categories_nodes":[],"categories_segments":[],"categories_sizes":[],"default_left":[0,0,0,0,0,0,0,0,0,0,0,0,0,0,0],"id":33,"left_children":[1,3,5,7,9,11,13,-1,-1,-1,-1,-1,-1,-1,-1],"loss_changes":[3.94334E1,2.9487665E1,2.280782E1,2.6572567E1,3.865446E1,1.8698833E1,2.4244642E0,0E0,0E0,0E0,0E0,0E0,0E0,0E0,0E0],"parents":[2147483647,0,0,1,1,2,2,3,3,4,4,5,5,6,6],"right_children":[2,4,6,8,10,12,14,-1,-1,-1,-1,-1,-1,-1,-1],"split_conditions":[1.2789218E0,-8.870321E-1,4.4621E-1,-5.487614E-2,-1.2871895E0,5.512366E-1,3.1596124E-1,-1.8070137E-2,2.4600204E-3,-1.6777096E-2,5.931991E-3,-2.9638465E-2,8.994109E-3,6.5472703E-3,-5.863147E-3],"split_indices":[12,27,25,12,12,3,0,0,0,0,0,0,0,0,0],"split_type":[0,0,0,0,0,0,0,0,0,0,0,0,0,0,0],"sum_hessian":[4.87E2,4.27E2,6E1,9.6E1,3.31E2,3.9E1,2.1E1,5.3E1,4.3E1,3.1E1,3E2,3.5E1,4E0,1.1E1,1E1],"tree_param":{"num_deleted":"0","num_feature":"35","num_nodes":"15","size_leaf_vector":"1"}},{"base_weights":[-5.765381E-2,-2.0957892E-1,4.4715118E-1,-3.720889E-1,3.6306977E-1,5.9582895E-1,-3.151451E-1,5.2963314E-3,-1.04990145E-2,1.3779566E-2,-1.9713442E-3,6.397508E-3,2.0957462E-2,-1.4630109E-2,3.053219E-3],"categories":[],"categories_nodes":[],"categories_segments":[],"categories_sizes":[],"default_left":[0,0,0,0,0,0,0,0,0,0,0,0,0,0,0],"id":34,"left_children":[1,3,5,7,9,11,13,-1,-1,-1,-1,-1,-1,-1,-1],"loss_changes":[3.637882E1,3.4525703E1,1.3009905E1,2.8674782E1,1.2912797E1,9.562992E0,4.308155E0,0E0,0E0,0E0,0E0,0E0,0E0,0E0,0E0],"parents":[2147483647,0,0,1,1,2,2,3,3,4,4,5,5,6,6],"right_children":[2,4,6,8,10,12,14,-1,-1,-1,-1,-1,-1,-1,-1],"split_conditions":[7.509348E-1,3.8650808E-1,8.075221E-1,-3.748234E-1,1.2091379E0,4.1644737E-1,1.2213253E0,5.2963314E-3,-1.04990145E-2,1.3779566E-2,-1.9713442E-3,6.397508E-3,2.0957462E-2,-1.4630109E-2,3.053219E-3],"split_indices":[27,2,10,11,23,1,27,0,0,0,0,0,0,0,0],"split_type":[0,0,0,0,0,0,0,0,0,0,0,0,0,0,0],"sum_hessian":[4.73E2,3.66E2,1.07E2,2.87E2,7.9E1,9.1E1,1.6E1,5.4E1,2.33E2,4.7E1,3.2E1,6E1,3.1E1,9E0,7E0],"tree_param":{"num_deleted":"0","num_feature":"35","num_nodes":"15","size_leaf_vector":"1"}},{"base_weights":[-1.1278605E-1,-3.2531032E-1,1.9988057E-1,-6.290631E-1,1.3778129E-1,1.209421E0,1.0948237E-1,-8.042756E-3,-2.8901372E-2,-1.83891E-2,8.027389E-3,2.9041044E-2,3.8958038E-3,5.706874E-3,-4.0633758E-3],"categories":[],"categories_nodes":[],"categories_segments":[],"categories_sizes":[],"default_left":[0,0,0,0,0,0,0,0,0,0,0,0,0,0,0],"id":35,"left_children":[1,3,5,7,9,11,13,-1,-1,-1,-1,-1,-1,-1,-1],"loss_changes":[3.2549805E1,4.173892E1,1.6303362E1,2.9951233E1,3.254629E1,1.4801826E0,1.02600565E1,0E0,0E0,0E0,0E0,0E0,0E0,0E0,0E0],"parents":[2147483647,0,0,1,1,2,2,3,3,4,4,5,5,6,6],"right_children":[2,4,6,8,10,12,14,-1,-1,-1,-1,-1,-1,-1,-1],"split_conditions":[-4.0557677E-1,1.8394625E-1,2.512438E-2,1.0254029E0,-1.4888407E0,9.52357E-1,4.090536E-1,-8.042756E-3,-2.8901372E-2,-1.83891E-2,8.027389E-3,2.9041044E-2,3.8958038E-3,5.706874E-3,-4.0633758E-3],"split_indices":[17,27,24,13,12,17,12,0,0,0,0,0,0,0,0],"split_type":[0,0,0,0,0,0,0,0,0,0,0,0,0,0,0],"sum_hessian":[4.84E2,2.9E2,1.94E2,1.76E2,1.14E2,1.3E1,1.81E2,1.41E2,3.5E1,2.1E1,9.3E1,9E0,4E0,1.18E2,6.3E1],"tree_param":{"num_deleted":"0","num_feature":"35","num_nodes":"15","size_leaf_vector":"1"}},{"base_weights":[-5.446423E-2,4.1987207E-2,-6.6230774E-1,-1.3758495E-1,3.339055E-1,-1.1381879E0,-0E0,-2.784461E-2,-7.551476E-4,8.083386E-3,-1.9542983E-2,-2.733899E-2,-0E0,-3.4381018E-3,1.2320964E-2],"categories":[],"categories_nodes":[],"categories_segments":[],"categories_sizes":[],"default_left":[0,0,0,0,0,0,0,0,0,0,0,0,0,0,0],"id":36,"left_children":[1,3,5,7,9,11,13,-1,-1,-1,-1,-1,-1,-1,-1],"loss_changes":[2.8699823E1,2.1937826E1,2.1133743E1,3.040318E1,1.49560375E1,1.1138775E1,3.395392E0,0E0,0E0,0E0,0E0,0E0,0E0,0E0,0E0],"parents":[2147483647,0,0,1,1,2,2,3,3,4,4,5,5,6,6],"right_children":[2,4,6,8,10,12,14,-1,-1,-1,-1,-1,-1,-1,-1],"split_conditions":[1.1998429E0,7.780641E-2,1.8394625E-1,-1.4514979E0,1.8729006E0,7.075982E-1,3.828818E-1,-2.784461E-2,-7.551476E-4,8.083386E-3,-1.9542983E-2,-2.733899E-2,-0E0,-3.4381018E-3,1.2320964E-2],"split_indices":[12,26,27,12,23,22,16,0,0,0,0,0,0,0,0],"split_type":[0,0,0,0,0,0,0,0,0,0,0,0,0,0,0],"sum_hessian":[4.76E2,4.11E2,6.5E1,2.53E2,1.58E2,3.7E1,2.8E1,1.6E1,2.37E2,1.52E2,6E0,3.1E1,6E0,2.3E1,5E0],"tree_param":{"num_deleted":"0","num_feature":"35","num_nodes":"15","size_leaf_vector":"1"}},{"base_weights":[9.3922205E-3,-1.2703355E-1,4.308849E-1,-2.7186212E-1,5.7866526E-1,1.0221615E0,1.9470021E-1,-1.0270805E-2,1.7040467E-3,2.867993E-2,-2.7696234E-3,5.451471E-3,2.7215874E-2,-2.8401255E-3,1.1647748E-2],"categories":[],"categories_nodes":[],"categories_segments":[],"categories_sizes":[],"default_left":[0,0,0,0,0,0,0,0,0,0,0,0,0,0,0],"id":37,"left_children":[1,3,5,7,9,11,13,-1,-1,-1,-1,-1,-1,-1,-1],"loss_changes":[2.927956E1,3.8743652E1,1.5841419E1,2.7871256E1,4.0950134E1,6.2551765E0,1.2745708E1,0E0,0E0,0E0,0E0,0E0,0E0,0E0,0E0],"parents":[2147483647,0,0,1,1,2,2,3,3,4,4,5,5,6,6],"right_children":[2,4,6,8,10,12,14,-1,-1,-1,-1,-1,-1,-1,-1],"split_conditions":[3.668948E-1,7.509348E-1,5.695652E-1,4.1644737E-1,-3.420709E-1,4.8646334E-1,4.2537212E-2,-1.0270805E-2,1.7040467E-3,2.867993E-2,-2.7696234E-3,5.451471E-3,2.7215874E-2,-2.8401255E-3,1.1647748E-2],"split_indices":[2,27,2,1,6,21,14,0,0,0,0,0,0,0,0],"split_type":[0,0,0,0,0,0,0,0,0,0,0,0,0,0,0],"sum_hessian":[5E2,3.77E2,1.23E2,3.15E2,6.2E1,3.2E1,9.1E1,1.89E2,1.26E2,2.8E1,3.4E1,1.2E1,2E1,4.8E1,4.3E1],"tree_param":{"num_deleted":"0","num_feature":"35","num_nodes":"15","size_leaf_vector":"1"}},{"base_weights":[1.8116698E-2,3.0507007E-1,-1.2954822E-1,9.624138E-1,1.3977708E-1,-3.9691737E-1,2.4563734E-1,1.044414E-3,2.6518721E-2,-6.197975E-6,1.18717635E-2,5.88051E-3,-1.1307112E-2,-2.17282E-2,7.3779896E-3],"categories":[],"categories_nodes":[],"categories_segments":[],"categories_sizes":[],"default_left":[0,0,0,0,0,0,0,0,0,0,0,0,0,0,0],"id":38,"left_children":[1,3,5,7,9,11,13,-1,-1,-1,-1,-1,-1,-1,-1],"loss_changes":[2.07207E1,1.6774033E1,3.224582E1,9.071373E0,9.303152E0,2.2483454E1,2.175726E1,0E0,0E0,0E0,0E0,0E0,0E0,0E0,0E0],"parents":[2147483647,0,0,1,1,2,2,3,3,4,4,5,5,6,6],"right_children":[2,4,6,8,10,12,14,-1,-1,-1,-1,-1,-1,-1,-1],"split_conditions":[-1.1269225E-1,-2.2629714E-1,-3.7187132E-1,2.715732E-1,3.7343258E-1,-3.748234E-1,-2.689419E-1,1.044414E-3,2.6518721E-2,-6.197975E-6,1.18717635E-2,5.88051E-3,-1.1307112E-2,-2.17282E-2,7.3779896E-3],"split_indices":[6,3,2,0,2,11,19,0,0,0,0,0,0,0,0],"split_type":[0,0,0,0,0,0,0,0,0,0,0,0,0,0,0],"sum_hessian":[4.81E2,1.65E2,3.16E2,3E1,1.35E2,1.86E2,1.3E2,1E1,2E1,1.03E2,3.2E1,3.5E1,1.51E2,9E0,1.21E2],"tree_param":{"num_deleted":"0","num_feature":"35","num_nodes":"15","size_leaf_vector":"1"}},{"base_weights":[1.1664397E-2,-1.8415084E-1,4.5473242E-1,-4.344779E-1,3.2770917E-1,7.9607236E-1,-3.4729708E-2,-4.6937065E-3,-2.2824474E-2,9.73926E-3,-1.29740415E-2,1.7958332E-2,-4.90932E-3,1.0871171E-3,-2.3659239E-2],"categories":[],"categories_nodes":[],"categories_segments":[],"categories_sizes":[],"default_left":[0,0,0,0,0,0,0,0,0,0,0,0,0,0,0],"id":39,"left_children":[1,3,5,7,9,11,13,-1,-1,-1,-1,-1,-1,-1,-1],"loss_changes":[3.861223E1,3.9471916E1,2.3705635E1,2.7317364E1,1.6019773E1,9.791389E0,7.0877905E0,0E0,0E0,0E0,0E0,0E0,0E0,0E0,0E0],"parents":[2147483647,0,0,1,1,2,2,3,3,4,4,5,5,6,6],"right_children":[2,4,6,8,10,12,14,-1,-1,-1,-1,-1,-1,-1,-1],"split_conditions":[4.989399E-1,-3.9839193E-1,5.7156074E-1,1.0254029E0,1.0691549E0,1.0585847E0,1.933786E0,-4.6937065E-3,-2.2824474E-2,9.73926E-3,-1.29740415E-2,1.7958332E-2,-4.90932E-3,1.0871171E-3,-2.3659239E-2],"split_indices":[27,17,17,13,26,10,24,0,0,0,0,0,0,0,0],"split_type":[0,0,0,0,0,0,0,0,0,0,0,0,0,0,0],"sum_hessian":[4.38E2,3.03E2,1.35E2,2.05E2,9.8E1,8E1,5.5E1,1.63E2,4.2E1,8.6E1,1.2E1,7.4E1,6E0,5.2E1,3E0],"tree_param":{"num_deleted":"0","num_feature":"35","num_nodes":"15","size_leaf_vector":"1"}},{"base_weights":[-0E0,-1.2269605E-1,2.5812566E-1,-2.8288865E-1,5.288106E-1,5.5778825E-1,-3.0449465E-1,-3.6887713E-3,-2.3465084E-2,1.5717972E-2,-2.2035327E-3,1.8132197E-2,2.939318E-3,1.9812614E-2,-1.1216335E-2],"categories":[],"categories_nodes":[],"categories_segments":[],"categories_sizes":[],"default_left":[0,0,0,0,0,0,0,0,0,0,0,0,0,0,0],"id":40,"left_children":[1,3,5,7,9,11,13,-1,-1,-1,-1,-1,-1,-1,-1],"loss_changes":[1.52502365E1,3.4181126E1,2.6725403E1,2.1438507E1,1.136256E1,1.3440224E1,1.860765E1,0E0,0E0,0E0,0E0,0E0,0E0,0E0,0E0],"parents":[2147483647,0,0,1,1,2,2,3,3,4,4,5,5,6,6],"right_children":[2,4,6,8,10,12,14,-1,-1,-1,-1,-1,-1,-1,-1],"split_conditions":[4.989399E-1,3.344612E-1,2.2728363E-1,2.0522745E0,2.6794454E-1,4.7801608E-1,5.6193864E-1,-3.6887713E-3,-2.3465084E-2,1.5717972E-2,-2.2035327E-3,1.8132197E-2,2.939318E-3,1.9812614E-2,-1.1216335E-2],"split_indices":[27,17,15,5,27,25,27,0,0,0,0,0,0,0,0],"split_type":[0,0,0,0,0,0,0,0,0,0,0,0,0,0,0],"sum_hessian":[4.78E2,3.25E2,1.53E2,2.63E2,6.2E1,1.01E2,5.2E1,2.4E2,2.3E1,4.5E1,1.7E1,5.2E1,4.9E1,7E0,4.5E1],"tree_param":{"num_deleted":"0","num_feature":"35","num_nodes":"15","size_leaf_vector":"1"}},{"base_weights":[4.009654E-2,-8.794716E-2,4.0510598E-1,-5.128659E-3,-1.2286875E0,9.390712E-1,1.3266017E-1,1.0173712E-2,-2.433606E-3,-1.9349693E-4,-3.197931E-2,-0E0,2.5287952E-2,-5.2727683E-4,1.4360539E-2],"categories":[],"categories_nodes":[],"categories_segments":[],"categories_sizes":[],"default_left":[0,0,0,0,0,0,0,0,0,0,0,0,0,0,0],"id":41,"left_children":[1,3,5,7,9,11,13,-1,-1,-1,-1,-1,-1,-1,-1],"loss_changes":[2.2635302E1,3.200857E1,1.7009163E1,1.955902E1,8.742012E0,1.3403702E1,8.828124E0,0E0,0E0,0E0,0E0,0E0,0E0,0E0,0E0],"parents":[2147483647,0,0,1,1,2,2,3,3,4,4,5,5,6,6],"right_children":[2,4,6,8,10,12,14,-1,-1,-1,-1,-1,-1,-1,-1],"split_conditions":[4.059327E-1,2.0522745E0,6.4801824E-1,-3.748234E-1,-1.1202427E0,3.2911113E-1,1.09881E0,1.0173712E-2,-2.433606E-3,-1.9349693E-4,-3.197931E-2,-0E0,2.5287952E-2,-5.2727683E-4,1.4360539E-2],"split_indices":[21,5,2,11,26,16,11,0,0,0,0,0,0,0,0],"split_type":[0,0,0,0,0,0,0,0,0,0,0,0,0,0,0],"sum_hessian":[4.74E2,3.5E2,1.24E2,3.29E2,2.1E1,3.9E1,8.5E1,5.8E1,2.71E2,6E0,1.5E1,1E1,2.9E1,6.7E1,1.8E1],"tree_param":{"num_deleted":"0","num_feature":"35","num_nodes":"15","size_leaf_vector":"1"}},{"base_weights":[-4.162947E-2,-1.871465E-1,4.3531296E-1,-2.9324254E-1,4.5601285E-1,1.6023216E0,1.3556513E-1,-6.993213E-3,1.4422436E-2,-1.8561893E-3,1.9348798E-2,-0E0,3.325014E-2,1.6186202E-2,-3.4558235E-3],"categories":[],"categories_nodes":[],"categories_segments":[],"categories_sizes":[],"default_left":[0,0,0,0,0,0,0,0,0,0,0,0,0,0,0],"id":42,"left_children":[1,3,5,7,9,11,13,-1,-1,-1,-1,-1,-1,-1,-1],"loss_changes":[3.1979069E1,2.446516E1,3.5257168E1,1.781645E1,1.5088336E1,1.3624535E0,1.9198511E1,0E0,0E0,0E0,0E0,0E0,0E0,0E0,0E0],"parents":[2147483647,0,0,1,1,2,2,3,3,4,4,5,5,6,6],"right_children":[2,4,6,8,10,12,14,-1,-1,-1,-1,-1,-1,-1,-1],"split_conditions":[4.9252754E-1,7.509348E-1,5.695652E-1,1.2040365E0,-2.2048892E-2,-8.957488E-1,2.6794454E-1,-6.993213E-3,1.4422436E-2,-1.8561893E-3,1.9348798E-2,-0E0,3.325014E-2,1.6186202E-2,-3.4558235E-3],"split_indices":[17,27,2,9,26,12,27,0,0,0,0,0,0,0,0],"split_type":[0,0,0,0,0,0,0,0,0,0,0,0,0,0,0],"sum_hessian":[4.6E2,3.55E2,1.05E2,3.07E2,4.8E1,1.9E1,8.6E1,2.93E2,1.4E1,2.3E1,2.5E1,1E0,1.8E1,2.7E1,5.9E1],"tree_param":{"num_deleted":"0","num_feature":"35","num_nodes":"15","size_leaf_vector":"1"}},{"base_weights":[-0E0,4.5952234E-1,-1.4802617E-1,5.670233E-1,-5.9835464E-1,-4.417027E-1,1.6314386E-1,2.1293321E-4,1.5501075E-2,-1.7108886E-2,6.483609E-3,3.6327685E-3,-1.141991E-2,9.311569E-3,-8.316142E-3],"categories":[],"categories_nodes":[],"categories_segments":[],"categories_sizes":[],"default_left":[0,0,0,0,0,0,0,0,0,0,0,0,0,0,0],"id":43,"left_children":[1,3,5,7,9,11,13,-1,-1,-1,-1,-1,-1,-1,-1],"loss_changes":[3.2958584E1,1.4066521E1,3.3960365E1,1.181382E1,3.694816E0,1.599015E1,3.1603828E1,0E0,0E0,0E0,0E0,0E0,0E0,0E0,0E0],"parents":[2147483647,0,0,1,1,2,2,3,3,4,4,5,5,6,6],"right_children":[2,4,6,8,10,12,14,-1,-1,-1,-1,-1,-1,-1,-1],"split_conditions":[-6.055279E-1,1.7414695E0,1.9121097E-1,-1.7810747E-1,1.6134865E0,-3.748234E-1,3.05397E-1,2.1293321E-4,1.5501075E-2,-1.7108886E-2,6.483609E-3,3.6327685E-3,-1.141991E-2,9.311569E-3,-8.316142E-3],"split_indices":[14,13,14,12,12,11,10,0,0,0,0,0,0,0,0],"split_type":[0,0,0,0,0,0,0,0,0,0,0,0,0,0,0],"sum_hessian":[4.81E2,1.16E2,3.65E2,1.07E2,9E0,1.89E2,1.76E2,3.1E1,7.6E1,8E0,1E0,3.1E1,1.58E2,1.17E2,5.9E1],"tree_param":{"num_deleted":"0","num_feature":"35","num_nodes":"15","size_leaf_vector":"1"}},{"base_weights":[9.086727E-3,2.9616022E-1,-1.9904679E-1,1.0675989E0,9.207299E-2,-4.5857462E-1,6.975423E-2,-3.6590765E-3,2.6569167E-2,-2.6307118E-3,1.3036027E-2,6.945556E-3,-1.321555E-2,-1.2421086E-3,1.2910065E-2],"categories":[],"categories_nodes":[],"categories_segments":[],"categories_sizes":[],"default_left":[0,0,0,0,0,0,0,0,0,0,0,0,0,0,0],"id":44,"left_children":[1,3,5,7,9,11,13,-1,-1,-1,-1,-1,-1,-1,-1],"loss_changes":[2.7819336E1,2.9659567E1,1.9079075E1,1.4680344E1,2.0592186E1,2.3258953E1,1.0608845E1,0E0,0E0,0E0,0E0,0E0,0E0,0E0,0E0],"parents":[2147483647,0,0,1,1,2,2,3,3,4,4,5,5,6,6],"right_children":[2,4,6,8,10,12,14,-1,-1,-1,-1,-1,-1,-1,-1],"split_conditions":[-2.4760436E-1,-6.055279E-1,5.584884E-2,-1.3928163E0,1.071817E0,-3.748234E-1,7.5686795E-1,-3.6590765E-3,2.6569167E-2,-2.6307118E-3,1.3036027E-2,6.945556E-3,-1.321555E-2,-1.2421086E-3,1.2910065E-2],"split_indices":[13,14,27,12,14,11,7,0,0,0,0,0,0,0,0],"split_type":[0,0,0,0,0,0,0,0,0,0,0,0,0,0,0],"sum_hessian":[4.6E2,1.95E2,2.65E2,3.8E1,1.57E2,1.36E2,1.29E2,6E0,3.2E1,1.12E2,4.5E1,2.6E1,1.1E2,1.05E2,2.4E1],"tree_param":{"num_deleted":"0","num_feature":"35","num_nodes":"15","size_leaf_vector":"1"}},{"base_weights":[-1.6464327E-2,5.8925662E-2,-5.9951675E-1,-2.4722652E-1,3.497446E-1,-8.743692E-1,3.8834846E-1,-8.945368E-3,8.71559E-3,5.625516E-4,1.2586948E-2,-2.0280981E-2,-0E0,1.233405E-2,-3.6759852E-3],"categories":[],"categories_nodes":[],"categories_segments":[],"categories_sizes":[],"default_left":[0,0,0,0,0,0,0,0,0,0,0,0,0,0,0],"id":45,"left_children":[1,3,5,7,9,11,13,-1,-1,-1,-1,-1,-1,-1,-1],"loss_changes":[2.1842146E1,3.838237E1,1.6641624E1,2.8820316E1,1.9270475E1,5.9638214E0,2.3580809E0,0E0,0E0,0E0,0E0,0E0,0E0,0E0,0E0],"parents":[2147483647,0,0,1,1,2,2,3,3,4,4,5,5,6,6],"right_children":[2,4,6,8,10,12,14,-1,-1,-1,-1,-1,-1,-1,-1],"split_conditions":[1.2789218E0,-1.7810747E-1,1.6703625E0,1.2814852E0,3.73277E-1,2.4267751E-1,8.9691967E-1,-8.945368E-3,8.71559E-3,5.625516E-4,1.2586948E-2,-2.0280981E-2,-0E0,1.233405E-2,-3.6759852E-3],"split_indices":[12,12,12,14,20,2,26,0,0,0,0,0,0,0,0],"split_type":[0,0,0,0,0,0,0,0,0,0,0,0,0,0,0],"sum_hessian":[4.81E2,4.26E2,5.5E1,2.06E2,2.2E2,4.4E1,1.1E1,1.61E2,4.5E1,1.05E2,1.15E2,3.8E1,6E0,9E0,2E0],"tree_param":{"num_deleted":"0","num_feature":"35","num_nodes":"15","size_leaf_vector":"1"}},{"base_weights":[1.4376284E-2,-1.8714158E-1,3.1191352E-1,-2.561978E-2,-7.9898524E-1,5.547594E-1,9.2045225E-2,-5.4368954E-3,9.282036E-3,-0E0,-2.5952693E-2,2.0449864E-2,6.4872885E-3,-3.4616455E-3,9.140464E-3],"categories":[],"categories_nodes":[],"categories_segments":[],"categories_sizes":[],"default_left":[0,0,0,0,0,0,0,0,0,0,0,0,0,0,0],"id":46,"left_children":[1,3,5,7,9,11,13,-1,-1,-1,-1,-1,-1,-1,-1],"loss_changes":[2.9381626E1,2.7695198E1,9.876495E0,2.8035025E1,2.4638401E1,7.904066E0,1.0989609E1,0E0,0E0,0E0,0E0,0E0,0E0,0E0,0E0],"parents":[2147483647,0,0,1,1,2,2,3,3,4,4,5,5,6,6],"right_children":[2,4,6,8,10,12,14,-1,-1,-1,-1,-1,-1,-1,-1],"split_conditions":[-4.1385117E-1,-5.559108E-1,2.6794454E-1,4.3594116E-1,-3.5414922E-1,-5.356385E-1,3.6975464E-1,-5.4368954E-3,9.282036E-3,-0E0,-2.5952693E-2,2.0449864E-2,6.4872885E-3,-3.4616455E-3,9.140464E-3],"split_indices":[21,21,27,27,15,14,20,0,0,0,0,0,0,0,0],"split_type":[0,0,0,0,0,0,0,0,0,0,0,0,0,0,0],"sum_hessian":[4.84E2,2.87E2,1.97E2,2.3E2,5.7E1,9E1,1.07E2,1.55E2,7.5E1,2.2E1,3.5E1,2.6E1,6.4E1,6.1E1,4.6E1],"tree_param":{"num_deleted":"0","num_feature":"35","num_nodes":"15","size_leaf_vector":"1"}},{"base_weights":[1.583426E-2,-1.317043E-1,4.6383598E-1,2.6902178E-1,-2.6647067E-1,1.1454543E0,2.5158364E-1,7.772588E-3,-1.204699E-2,2.9125013E-3,-1.0289999E-2,-0E0,2.8416304E-2,-5.863092E-3,1.1218567E-2],"categories":[],"categories_nodes":[],"categories_segments":[],"categories_sizes":[],"default_left":[0,0,0,0,0,0,0,0,0,0,0,0,0,0,0],"id":47,"left_children":[1,3,5,7,9,11,13,-1,-1,-1,-1,-1,-1,-1,-1],"loss_changes":[3.3238686E1,2.0284466E1,1.6110992E1,9.947168E0,2.9342453E1,7.673916E0,1.7279331E1,0E0,0E0,0E0,0E0,0E0,0E0,0E0,0E0],"parents":[2147483647,0,0,1,1,2,2,3,3,4,4,5,5,6,6],"right_children":[2,4,6,8,10,12,14,-1,-1,-1,-1,-1,-1,-1,-1],"split_conditions":[4.637882E-1,-6.055279E-1,6.5777874E-1,1.270212E0,-1.1269225E-1,3.2911113E-1,9.0924793E-1,7.772588E-3,-1.204699E-2,2.9125013E-3,-1.0289999E-2,-0E0,2.8416304E-2,-5.863092E-3,1.1218567E-2],"split_indices":[17,14,17,13,6,16,17,0,0,0,0,0,0,0,0],"split_type":[0,0,0,0,0,0,0,0,0,0,0,0,0,0,0],"sum_hessian":[4.94E2,3.71E2,1.23E2,9.1E1,2.8E2,2.6E1,9.7E1,8.2E1,9E0,1.04E2,1.76E2,6E0,2E1,3.4E1,6.3E1],"tree_param":{"num_deleted":"0","num_feature":"35","num_nodes":"15","size_leaf_vector":"1"}},{"base_weights":[1.17498655E-2,7.195188E-2,-5.9435165E-1,2.9742312E-1,-8.480708E-2,-1.1775277E0,5.068238E-1,1.8633751E-2,-1.1980784E-4,-1.915194E-2,-0E0,-2.8783979E-2,1.9000053E-3,1.5009546E-2,-0E0],"categories":[],"categories_nodes":[],"categories_segments":[],"categories_sizes":[],"default_left":[0,0,0,0,0,0,0,0,0,0,0,0,0,0,0],"id":48,"left_children":[1,3,5,7,9,11,13,-1,-1,-1,-1,-1,-1,-1,-1],"loss_changes":[1.6639763E1,1.5425915E1,2.8193645E1,3.5384407E1,1.8361376E1,1.0941196E1,1.7791073E0,0E0,0E0,0E0,0E0,0E0,0E0,0E0,0E0],"parents":[2147483647,0,0,1,1,2,2,3,3,4,4,5,5,6,6],"right_children":[2,4,6,8,10,12,14,-1,-1,-1,-1,-1,-1,-1,-1],"split_conditions":[1.6134865E0,6.1159957E-2,1.6703625E0,-5.9415495E-1,-1.3306829E0,-6.006927E-1,2.512438E-2,1.8633751E-2,-1.1980784E-4,-1.915194E-2,-0E0,-2.8783979E-2,1.9000053E-3,1.5009546E-2,-0E0],"split_indices":[12,15,12,2,12,2,24,0,0,0,0,0,0,0,0],"split_type":[0,0,0,0,0,0,0,0,0,0,0,0,0,0,0],"sum_hessian":[4.66E2,4.27E2,3.9E1,1.77E2,2.5E2,2.6E1,1.3E1,5.7E1,1.2E2,2E1,2.3E2,2.2E1,4E0,8E0,5E0],"tree_param":{"num_deleted":"0","num_feature":"35","num_nodes":"15","size_leaf_vector":"1"}},{"base_weights":[1.957195E-2,1.0269057E-1,-7.031362E-1,-4.2320982E-1,2.3923825E-1,-1.1155466E0,5.6244124E-2,-4.8320503E-3,-2.537375E-2,7.029693E-3,-9.52568E-3,8.239317E-3,-2.6444137E-2,-4.752754E-3,7.0122955E-3],"categories":[],"categories_nodes":[],"categories_segments":[],"categories_sizes":[],"default_left":[0,0,0,0,0,0,0,0,0,0,0,0,0,0,0],"id":49,"left_children":[1,3,5,7,9,11,13,-1,-1,-1,-1,-1,-1,-1,-1],"loss_changes":[2.9819496E1,3.269229E1,1.7156784E1,1.2156351E1,2.9444605E1,1.2732639E1,1.9233091E0,0E0,0E0,0E0,0E0,0E0,0E0,0E0,0E0],"parents":[2147483647,0,0,1,1,2,2,3,3,4,4,5,5,6,6],"right_children":[2,4,6,8,10,12,14,-1,-1,-1,-1,-1,-1,-1,-1],"split_conditions":[1.6134865E0,-8.870321E-1,1.8394625E-1,1.1012493E0,5.772932E-1,5.8474654E-1,-2.2629714E-1,-4.8320503E-3,-2.537375E-2,7.029693E-3,-9.52568E-3,8.239317E-3,-2.6444137E-2,-4.752754E-3,7.0122955E-3],"split_indices":[12,27,27,5,18,13,3,0,0,0,0,0,0,0,0],"split_type":[0,0,0,0,0,0,0,0,0,0,0,0,0,0,0],"sum_hessian":[5.02E2,4.53E2,4.9E1,9.1E1,3.62E2,3.2E1,1.7E1,7.8E1,1.3E1,3.15E2,4.7E1,3E0,2.9E1,7E0,1E1],"tree_param":{"num_deleted":"0","num_feature":"35","num_nodes":"15","size_leaf_vector":"1"}},{"base_weights":[-1.0708797E-2,7.980217E-2,-5.5870324E-1,-2.651676E-1,2.2297765E-1,-8.168652E-1,8.835956E-1,1.3223665E-2,-8.600271E-3,2.94537E-3,1.4968035E-2,-1.9609729E-2,7.7449405E-3,3.0465864E-2,-5.8671758E-3],"categories":[],"categories_nodes":[],"categories_segments":[],"categories_sizes":[],"default_left":[0,0,0,0,0,0,0,0,0,0,0,0,0,0,0],"id":50,"left_children":[1,3,5,7,9,11,13,-1,-1,-1,-1,-1,-1,-1,-1],"loss_changes":[2.4425436E1,2.0474632E1,2.7441097E1,1.8662088E1,1.0618826E1,1.3370739E1,1.0405522E1,0E0,0E0,0E0,0E0,0E0,0E0,0E0,0E0],"parents":[2147483647,0,0,1,1,2,2,3,3,4,4,5,5,6,6],"right_children":[2,4,6,8,10,12,14,-1,-1,-1,-1,-1,-1,-1,-1],"split_conditions":[1.270212E0,-3.9113054E-1,1.9121097E-1,2.7817357E-1,8.8233644E-1,1.3287704E0,4.0473735E-1,1.3223665E-2,-8.600271E-3,2.94537E-3,1.4968035E-2,-1.9609729E-2,7.7449405E-3,3.0465864E-2,-5.8671758E-3],"split_indices":[13,26,14,20,4,3,0,0,0,0,0,0,0,0,0],"split_type":[0,0,0,0,0,0,0,0,0,0,0,0,0,0,0],"sum_hessian":[4.79E2,4.11E2,6.8E1,1.18E2,2.93E2,5.9E1,9E0,1.6E1,1.02E2,2.6E2,3.3E1,5.3E1,6E0,6E0,3E0],"tree_param":{"num_deleted":"0","num_feature":"35","num_nodes":"15","size_leaf_vector":"1"}},{"base_weights":[-3.030188E-2,-9.123349E-2,5.2390003E-1,-2.4244386E-1,2.097693E-1,1.0269681E0,-1.1854109E-1,4.8830453E-3,-7.832999E-3,-2.9501878E-3,9.246883E-3,2.2766199E-2,-0E0,5.1975725E-3,-8.8667E-3],"categories":[],"categories_nodes":[],"categories_segments":[],"categories_sizes":[],"default_left":[0,0,0,0,0,0,0,0,0,0,0,0,0,0,0],"id":51,"left_children":[1,3,5,7,9,11,13,-1,-1,-1,-1,-1,-1,-1,-1],"loss_changes":[1.64796E1,2.0707052E1,1.66651E1,2.2410091E1,1.3987181E1,4.1589127E0,3.1178687E0,0E0,0E0,0E0,0E0,0E0,0E0,0E0,0E0],"parents":[2147483647,0,0,1,1,2,2,3,3,4,4,5,5,6,6],"right_children":[2,4,6,8,10,12,14,-1,-1,-1,-1,-1,-1,-1,-1],"split_conditions":[8.8233644E-1,6.8077993E-1,6.96683E-1,-1.0496371E-1,-3.222594E-1,6.6134495E-1,2.6794454E-1,4.8830453E-3,-7.832999E-3,-2.9501878E-3,9.246883E-3,2.2766199E-2,-0E0,5.1975725E-3,-8.8667E-3],"split_indices":[4,25,25,15,10,24,27,0,0,0,0,0,0,0,0],"split_type":[0,0,0,0,0,0,0,0,0,0,0,0,0,0,0],"sum_hessian":[4.96E2,4.5E2,4.6E1,3.02E2,1.48E2,2.6E1,2E1,6.9E1,2.33E2,6E1,8.8E1,2.4E1,2E0,8E0,1.2E1],"tree_param":{"num_deleted":"0","num_feature":"35","num_nodes":"15","size_leaf_vector":"1"}},{"base_weights":[1.6268622E-2,-1.03414856E-1,3.7053514E-1,-2.4452128E-1,3.4045434E-1,5.5831397E-1,-0E0,4.896463E-4,-8.171626E-3,1.523224E-2,-6.1334213E-3,1.4951222E-2,-1.506559E-3,-2.5468912E-2,4.9124123E-3],"categories":[],"categories_nodes":[],"categories_segments":[],"categories_sizes":[],"default_left":[0,0,0,0,0,0,0,0,0,0,0,0,0,0,0],"id":52,"left_children":[1,3,5,7,9,11,13,-1,-1,-1,-1,-1,-1,-1,-1],"loss_changes":[2.0568485E1,2.236784E1,8.049715E0,1.2452343E1,2.4088123E1,1.0378046E1,1.3764826E1,0E0,0E0,0E0,0E0,0E0,0E0,0E0,0E0],"parents":[2147483647,0,0,1,1,2,2,3,3,4,4,5,5,6,6],"right_children":[2,4,6,8,10,12,14,-1,-1,-1,-1,-1,-1,-1,-1],"split_conditions":[3.8650808E-1,6.0393775E-1,4.759665E-1,3.4862056E-1,1.4422178E-1,1.1079276E0,-3.578428E-1,4.896463E-4,-8.171626E-3,1.523224E-2,-6.1334213E-3,1.4951222E-2,-1.506559E-3,-2.5468912E-2,4.9124123E-3],"split_indices":[2,27,12,20,15,27,27,0,0,0,0,0,0,0,0],"split_type":[0,0,0,0,0,0,0,0,0,0,0,0,0,0,0],"sum_hessian":[4.75E2,3.54E2,1.21E2,2.71E2,8.3E1,7.8E1,4.3E1,1.01E2,1.7E2,5.1E1,3.2E1,6.1E1,1.7E1,5E0,3.8E1],"tree_param":{"num_deleted":"0","num_feature":"35","num_nodes":"15","size_leaf_vector":"1"}},{"base_weights":[5.05251E-3,-6.1833408E-2,7.233758E-1,-5.016303E-1,5.0595738E-2,-0E0,9.5015866E-1,-2.0817487E-2,-3.9186147E-3,7.964525E-3,-3.0669856E-3,-7.6512145E-3,6.936708E-3,-0E0,2.1247927E-2],"categories":[],"categories_nodes":[],"categories_segments":[],"categories_sizes":[],"default_left":[0,0,0,0,0,0,0,0,0,0,0,0,0,0,0],"id":53,"left_children":[1,3,5,7,9,11,13,-1,-1,-1,-1,-1,-1,-1,-1],"loss_changes":[2.419731E1,2.260415E1,7.291731E0,1.3686062E1,2.560653E1,1.8665326E0,2.9394455E0,0E0,0E0,0E0,0E0,0E0,0E0,0E0,0E0],"parents":[2147483647,0,0,1,1,2,2,3,3,4,4,5,5,6,6],"right_children":[2,4,6,8,10,12,14,-1,-1,-1,-1,-1,-1,-1,-1],"split_conditions":[1.3884655E0,-9.080317E-1,3.0016595E-1,-3.420709E-1,-1.1269225E-1,5.8917844E-1,1.5022413E-1,-2.0817487E-2,-3.9186147E-3,7.964525E-3,-3.0669856E-3,-7.6512145E-3,6.936708E-3,-0E0,2.1247927E-2],"split_indices":[25,27,9,6,6,2,5,0,0,0,0,0,0,0,0],"split_type":[0,0,0,0,0,0,0,0,0,0,0,0,0,0,0],"sum_hessian":[4.86E2,4.45E2,4.1E1,9.1E1,3.54E2,1E1,3.1E1,3E1,6.1E1,1.32E2,2.22E2,5E0,5E0,4E0,2.7E1],"tree_param":{"num_deleted":"0","num_feature":"35","num_nodes":"15","size_leaf_vector":"1"}},{"base_weights":[2.1777477E-2,1.0247648E-1,-5.433179E-1,-2.7634692E-1,2.1474865E-1,-9.521163E-1,4.8817214E-2,-1.2283274E-2,5.3700977E-3,6.2132687E-3,-7.72856E-3,-2.1734366E-2,8.361165E-3,1.066416E-2,-4.5560724E-3],"categories":[],"categories_nodes":[],"categories_segments":[],"categories_sizes":[],"default_left":[0,0,0,0,0,0,0,0,0,0,0,0,0,0,0],"id":54,"left_children":[1,3,5,7,9,11,13,-1,-1,-1,-1,-1,-1,-1,-1],"loss_changes":[2.1650986E1,1.8132904E1,1.5278027E1,1.8345238E1,1.9250362E1,8.216694E0,3.8981526E0,0E0,0E0,0E0,0E0,0E0,0E0,0E0,0E0],"parents":[2147483647,0,0,1,1,2,2,3,3,4,4,5,5,6,6],"right_children":[2,4,6,8,10,12,14,-1,-1,-1,-1,-1,-1,-1,-1],"split_conditions":[1.2478551E0,-8.870321E-1,1.8394625E-1,-2.9892656E-3,5.772932E-1,6.0145617E-1,5.199395E-1,-1.2283274E-2,5.3700977E-3,6.2132687E-3,-7.72856E-3,-2.1734366E-2,8.361165E-3,1.066416E-2,-4.5560724E-3],"split_indices":[12,27,27,12,18,9,27,0,0,0,0,0,0,0,0],"split_type":[0,0,0,0,0,0,0,0,0,0,0,0,0,0,0],"sum_hessian":[4.8E2,4.23E2,5.7E1,9.4E1,3.29E2,3.4E1,2.3E1,5.9E1,3.5E1,2.86E2,4.3E1,3.2E1,2E0,9E0,1.4E1],"tree_param":{"num_deleted":"0","num_feature":"35","num_nodes":"15","size_leaf_vector":"1"}},{"base_weights":[2.3291241E-2,-4.9288025E-1,1.5474173E-1,-9.499736E-1,-2.3970008E-2,6.784325E-1,2.2999972E-2,-0E0,-2.1383218E-2,3.2628863E-3,-1.5164169E-2,1.97467E-2,4.1165488E-4,-2.0496983E-2,1.837104E-3],"categories":[],"categories_nodes":[],"categories_segments":[],"categories_sizes":[],"default_left":[0,0,0,0,0,0,0,0,0,0,0,0,0,0,0],"id":55,"left_children":[1,3,5,7,9,11,13,-1,-1,-1,-1,-1,-1,-1,-1],"loss_changes":[3.3264942E1,2.019975E1,2.6588173E1,6.07658E0,7.9865584E0,1.4801929E1,2.2343245E1,0E0,0E0,0E0,0E0,0E0,0E0,0E0,0E0],"parents":[2147483647,0,0,1,1,2,2,3,3,4,4,5,5,6,6],"right_children":[2,4,6,8,10,12,14,-1,-1,-1,-1,-1,-1,-1,-1],"split_conditions":[-8.870321E-1,4.7801608E-1,-3.748234E-1,-9.689751E-1,1.3395666E-1,6.781277E-1,-1.6727014E0,-0E0,-2.1383218E-2,3.2628863E-3,-1.5164169E-2,1.97467E-2,4.1165488E-4,-2.0496983E-2,1.837104E-3],"split_indices":[27,25,11,13,19,23,26,0,0,0,0,0,0,0,0],"split_type":[0,0,0,0,0,0,0,0,0,0,0,0,0,0,0],"sum_hessian":[4.91E2,9.7E1,3.94E2,4.7E1,5E1,7.6E1,3.18E2,5E0,4.2E1,4E1,1E1,5E1,2.6E1,1.7E1,3.01E2],"tree_param":{"num_deleted":"0","num_feature":"35","num_nodes":"15","size_leaf_vector":"1"}},{"base_weights":[-2.2313502E-2,-1.8863569E-1,2.065923E-1,-9.3338564E-2,-1.0776391E0,5.9679676E-2,6.24943E-1,-7.928676E-3,7.4551553E-3,-0E0,-2.7365876E-2,2.7815882E-2,-0E0,1.9935535E-2,-4.5460174E-3],"categories":[],"categories_nodes":[],"categories_segments":[],"categories_sizes":[],"default_left":[0,0,0,0,0,0,0,0,0,0,0,0,0,0,0],"id":56,"left_children":[1,3,5,7,9,11,13,-1,-1,-1,-1,-1,-1,-1,-1],"loss_changes":[1.8296526E1,2.2434023E1,1.1532984E1,3.6626022E1,9.122829E0,1.1064477E1,1.7067268E1,0E0,0E0,0E0,0E0,0E0,0E0,0E0,0E0],"parents":[2147483647,0,0,1,1,2,2,3,3,4,4,5,5,6,6],"right_children":[2,4,6,8,10,12,14,-1,-1,-1,-1,-1,-1,-1,-1],"split_conditions":[-4.0557677E-1,2.0522745E0,4.196892E-1,4.1644737E-1,-3.748234E-1,-2.449085E0,1.0598967E0,-7.928676E-3,7.4551553E-3,-0E0,-2.7365876E-2,2.7815882E-2,-0E0,1.9935535E-2,-4.5460174E-3],"split_indices":[17,5,18,1,11,12,2,0,0,0,0,0,0,0,0],"split_type":[0,0,0,0,0,0,0,0,0,0,0,0,0,0,0],"sum_hessian":[4.77E2,2.79E2,1.98E2,2.55E2,2.4E1,1.5E2,4.8E1,1.56E2,9.9E1,5E0,1.9E1,4E0,1.46E2,3.4E1,1.4E1],"tree_param":{"num_deleted":"0","num_feature":"35","num_nodes":"15","size_leaf_vector":"1"}},{"base_weights":[-2.0693453E-2,-1.9733407E-1,2.3536648E-1,-9.367556E-2,-1.0928919E0,9.058193E-1,9.8089695E-2,-7.4173785E-3,5.8409465E-3,-0E0,-2.941286E-2,2.240459E-2,-0E0,5.27283E-4,2.0391714E-2],"categories":[],"categories_nodes":[],"categories_segments":[],"categories_sizes":[],"default_left":[0,0,0,0,0,0,0,0,0,0,0,0,0,0,0],"id":57,"left_children":[1,3,5,7,9,11,13,-1,-1,-1,-1,-1,-1,-1,-1],"loss_changes":[2.2036924E1,2.5622847E1,1.6949799E1,2.852228E1,1.2943424E1,6.371496E0,9.938121E0,0E0,0E0,0E0,0E0,0E0,0E0,0E0,0E0],"parents":[2147483647,0,0,1,1,2,2,3,3,4,4,5,5,6,6],"right_children":[2,4,6,8,10,12,14,-1,-1,-1,-1,-1,-1,-1,-1],"split_conditions":[-1.785931E-1,1.1012493E0,-1.1087563E0,4.1644737E-1,-1.1202427E0,4.0473735E-1,1.1012493E0,-7.4173785E-3,5.8409465E-3,-0E0,-2.941286E-2,2.240459E-2,-0E0,5.27283E-4,2.0391714E-2],"split_indices":[21,5,13,1,26,0,5,0,0,0,0,0,0,0,0],"split_type":[0,0,0,0,0,0,0,0,0,0,0,0,0,0,0],"sum_hessian":[4.84E2,2.89E2,1.95E2,2.62E2,2.7E1,3E1,1.65E2,1.54E2,1.08E2,7E0,2E1,2.4E1,6E0,1.56E2,9E0],"tree_param":{"num_deleted":"0","num_feature":"35","num_nodes":"15","size_leaf_vector":"1"}},{"base_weights":[-6.049411E-2,-1.5193433E-1,3.3943388E-1,-4.139959E-1,1.6958518E-1,9.709373E-1,6.790244E-2,-0E0,-1.3128227E-2,2.4446312E-4,2.459659E-2,6.0928217E-3,3.0062532E-2,-6.263927E-3,7.7663604E-3],"categories":[],"categories_nodes":[],"categories_segments":[],"categories_sizes":[],"default_left":[0,0,0,0,0,0,0,0,0,0,0,0,0,0,0],"id":58,"left_children":[1,3,5,7,9,11,13,-1,-1,-1,-1,-1,-1,-1,-1],"loss_changes":[1.6701046E1,3.215006E1,1.3233037E1,2.0452293E1,2.6924217E1,5.786703E0,7.889181E0,0E0,0E0,0E0,0E0,0E0,0E0,0E0,0E0],"parents":[2147483647,0,0,1,1,2,2,3,3,4,4,5,5,6,6],"right_children":[2,4,6,8,10,12,14,-1,-1,-1,-1,-1,-1,-1,-1],"split_conditions":[6.0145617E-1,1.9121097E-1,9.027463E-1,-6.055279E-1,6.023576E-1,-2.5880534E-2,1.4422178E-1,-0E0,-1.3128227E-2,2.4446312E-4,2.459659E-2,6.0928217E-3,3.0062532E-2,-6.263927E-3,7.7663604E-3],"split_indices":[9,14,9,14,12,12,15,0,0,0,0,0,0,0,0],"split_type":[0,0,0,0,0,0,0,0,0,0,0,0,0,0,0],"sum_hessian":[4.57E2,3.75E2,8.2E1,2.08E2,1.67E2,2.2E1,6E1,7.9E1,1.29E2,1.48E2,1.9E1,1.2E1,1E1,2.6E1,3.4E1],"tree_param":{"num_deleted":"0","num_feature":"35","num_nodes":"15","size_leaf_vector":"1"}},{"base_weights":[5.886225E-2,1.4875016E-1,-3.977046E-1,-2.6731738E-1,1.9588386E-1,-7.588736E-1,4.364985E-1,5.4146545E-3,-1.8862681E-2,-2.1861047E-3,6.010877E-3,-1.570357E-3,-1.9591276E-2,2.6722303E-2,-6.4596796E-4],"categories":[],"categories_nodes":[],"categories_segments":[],"categories_sizes":[],"default_left":[0,0,0,0,0,0,0,0,0,0,0,0,0,0,0],"id":59,"left_children":[1,3,5,7,9,11,13,-1,-1,-1,-1,-1,-1,-1,-1],"loss_changes":[1.9650564E1,7.9952784E0,2.448536E1,1.5728006E1,1.2011262E1,7.196369E0,1.1511826E1,0E0,0E0,0E0,0E0,0E0,0E0,0E0,0E0],"parents":[2147483647,0,0,1,1,2,2,3,3,4,4,5,5,6,6],"right_children":[2,4,6,8,10,12,14,-1,-1,-1,-1,-1,-1,-1,-1],"split_conditions":[1.270212E0,-1.4716498E0,-4.0584394E-1,-1.6001745E0,3.0016595E-1,-9.250221E-1,3.6199325E-1,5.4146545E-3,-1.8862681E-2,-2.1861047E-3,6.010877E-3,-1.570357E-3,-1.9591276E-2,2.6722303E-2,-6.4596796E-4],"split_indices":[13,13,14,13,9,14,11,0,0,0,0,0,0,0,0],"split_type":[0,0,0,0,0,0,0,0,0,0,0,0,0,0,0],"sum_hessian":[4.8E2,4.04E2,7.6E1,3.8E1,3.66E2,5.4E1,2.2E1,2.1E1,1.7E1,9.1E1,2.75E2,1.5E1,3.9E1,7E0,1.5E1],"tree_param":{"num_deleted":"0","num_feature":"35","num_nodes":"15","size_leaf_vector":"1"}},{"base_weights":[-1.2645788E-3,4.098564E-1,-1.4315748E-1,-3.274481E-1,5.548905E-1,-7.82813E-1,-2.9904773E-2,-1.4347015E-2,7.2096298E-3,1.3955475E-2,-1.0393664E-2,9.619299E-3,-2.015975E-2,3.8186766E-3,-4.0182853E-3],"categories":[],"categories_nodes":[],"categories_segments":[],"categories_sizes":[],"default_left":[0,0,0,0,0,0,0,0,0,0,0,0,0,0,0],"id":60,"left_children":[1,3,5,7,9,11,13,-1,-1,-1,-1,-1,-1,-1,-1],"loss_changes":[2.9018225E1,1.4171492E1,2.6306482E1,6.5067906E0,1.74855E1,1.7148022E1,1.2247195E1,0E0,0E0,0E0,0E0,0E0,0E0,0E0,0E0],"parents":[2147483647,0,0,1,1,2,2,3,3,4,4,5,5,6,6],"right_children":[2,4,6,8,10,12,14,-1,-1,-1,-1,-1,-1,-1,-1],"split_conditions":[-6.055279E-1,-2.7108738E-1,-5.356385E-1,5.24738E-1,1.2827214E0,-3.748234E-1,6.1159957E-2,-1.4347015E-2,7.2096298E-3,1.3955475E-2,-1.0393664E-2,9.619299E-3,-2.015975E-2,3.8186766E-3,-4.0182853E-3],"split_indices":[14,15,14,20,21,11,15,0,0,0,0,0,0,0,0],"split_type":[0,0,0,0,0,0,0,0,0,0,0,0,0,0,0],"sum_hessian":[4.98E2,1.25E2,3.73E2,1.9E1,1.06E2,5.3E1,3.2E2,1.3E1,6E0,9.5E1,1.1E1,7E0,4.6E1,1.37E2,1.83E2],"tree_param":{"num_deleted":"0","num_feature":"35","num_nodes":"15","size_leaf_vector":"1"}},{"base_weights":[-6.631711E-2,-2.6861352E-1,2.3260996E-1,-1.7186446E-1,-1.3249079E0,1.5023372E-1,1.1870745E0,-2.6712394E-3,-3.8509797E-2,-3.1113628E-2,5.9821485E-3,7.091E-4,1.159202E-2,-0E0,2.7582647E-2],"categories":[],"categories_nodes":[],"categories_segments":[],"categories_sizes":[],"default_left":[0,0,0,0,0,0,0,0,0,0,0,0,0,0,0],"id":61,"left_children":[1,3,5,7,9,11,13,-1,-1,-1,-1,-1,-1,-1,-1],"loss_changes":[2.9066523E1,2.7480114E1,1.3402055E1,1.53605175E1,1.080714E1,8.214645E0,3.0960274E0,0E0,0E0,0E0,0E0,0E0,0E0,0E0,0E0],"parents":[2147483647,0,0,1,1,2,2,3,3,4,4,5,5,6,6],"right_children":[2,4,6,8,10,12,14,-1,-1,-1,-1,-1,-1,-1,-1],"split_conditions":[-4.4868577E-1,1.1012493E0,1.1012493E0,-4.774251E-1,6.7821914E-1,1.3884655E0,-3.1303155E-1,-2.6712394E-3,-3.8509797E-2,-3.1113628E-2,5.9821485E-3,7.091E-4,1.159202E-2,-0E0,2.7582647E-2],"split_indices":[17,5,5,17,13,25,2,0,0,0,0,0,0,0,0],"split_type":[0,0,0,0,0,0,0,0,0,0,0,0,0,0,0],"sum_hessian":[4.76E2,2.86E2,1.9E2,2.65E2,2.1E1,1.78E2,1.2E1,2.62E2,3E0,1.9E1,2E0,1.44E2,3.4E1,2E0,1E1],"tree_param":{"num_deleted":"0","num_feature":"35","num_nodes":"15","size_leaf_vector":"1"}},{"base_weights":[6.437262E-2,1.5626632E-1,-5.4755026E-1,-2.4715435E-2,3.2347307E-1,-7.354484E-1,2.1135777E-1,-3.4259697E-3,1.2902986E-2,1.50139285E-2,1.8942102E-3,-1.7861027E-2,7.800279E-3,1.583613E-2,-7.3908614E-3],"categories":[],"categories_nodes":[],"categories_segments":[],"categories_sizes":[],"default_left":[0,0,0,0,0,0,0,0,0,0,0,0,0,0,0],"id":62,"left_children":[1,3,5,7,9,11,13,-1,-1,-1,-1,-1,-1,-1,-1],"loss_changes":[2.733345E1,1.3296877E1,9.818615E0,1.9876293E1,2.1099987E1,1.0423208E1,5.390858E0,0E0,0E0,0E0,0E0,0E0,0E0,0E0,0E0],"parents":[2147483647,0,0,1,1,2,2,3,3,4,4,5,5,6,6],"right_children":[2,4,6,8,10,12,14,-1,-1,-1,-1,-1,-1,-1,-1],"split_conditions":[1.2478551E0,-1.7810747E-1,4.1644737E-1,4.206792E-1,-6.0397405E-2,1.8720138E0,4.8193473E-1,-3.4259697E-3,1.2902986E-2,1.50139285E-2,1.8942102E-3,-1.7861027E-2,7.800279E-3,1.583613E-2,-7.3908614E-3],"split_indices":[12,12,1,17,13,12,1,0,0,0,0,0,0,0,0],"split_type":[0,0,0,0,0,0,0,0,0,0,0,0,0,0,0],"sum_hessian":[4.88E2,4.27E2,6.1E1,2.03E2,2.24E2,5E1,1.1E1,1.69E2,3.4E1,7.5E1,1.49E2,4.5E1,5E0,6E0,5E0],"tree_param":{"num_deleted":"0","num_feature":"35","num_nodes":"15","size_leaf_vector":"1"}},{"base_weights":[-4.1825324E-2,-2.5601384E-1,2.919383E-1,-3.6638787E-1,2.4614328E-1,-3.0804023E-2,4.136533E-1,-1.7271994E-2,-4.1644806E-3,1.0221902E-2,-5.111081E-3,-6.997411E-3,1.2568923E-2,7.407537E-4,1.1410041E-2],"categories":[],"categories_nodes":[],"categories_segments":[],"categories_sizes":[],"default_left":[0,0,0,0,0,0,0,0,0,0,0,0,0,0,0],"id":63,"left_children":[1,3,5,7,9,11,13,-1,-1,-1,-1,-1,-1,-1,-1],"loss_changes":[3.392754E1,1.642932E1,7.6363287E0,1.7520996E1,7.4288983E0,1.0678407E1,7.3839474E0,0E0,0E0,0E0,0E0,0E0,0E0,0E0,0E0],"parents":[2147483647,0,0,1,1,2,2,3,3,4,4,5,5,6,6],"right_children":[2,4,6,8,10,12,14,-1,-1,-1,-1,-1,-1,-1,-1],"split_conditions":[-1.785931E-1,6.0145617E-1,-2.2653154E-1,-4.9933764E-1,5.772932E-1,1.3884655E0,3.5599646E-1,-1.7271994E-2,-4.1644806E-3,1.0221902E-2,-5.111081E-3,-6.997411E-3,1.2568923E-2,7.407537E-4,1.1410041E-2],"split_indices":[21,9,19,26,18,25,16,0,0,0,0,0,0,0,0],"split_type":[0,0,0,0,0,0,0,0,0,0,0,0,0,0,0],"sum_hessian":[4.71E2,2.89E2,1.82E2,2.39E2,5E1,4.8E1,1.34E2,5.4E1,1.85E2,3.4E1,1.6E1,3.4E1,1.4E1,4.2E1,9.2E1],"tree_param":{"num_deleted":"0","num_feature":"35","num_nodes":"15","size_leaf_vector":"1"}},{"base_weights":[1.5824331E-2,9.8429665E-2,-4.6337923E-1,-3.6543038E-1,1.8241394E-1,8.430039E-1,-6.541968E-1,-0E0,-1.8975608E-2,1.0532868E-2,3.911349E-4,-4.7011374E-5,2.456125E-2,-1.690251E-2,-0E0],"categories":[],"categories_nodes":[],"categories_segments":[],"categories_sizes":[],"default_left":[0,0,0,0,0,0,0,0,0,0,0,0,0,0,0],"id":64,"left_children":[1,3,5,7,9,11,13,-1,-1,-1,-1,-1,-1,-1,-1],"loss_changes":[1.8687378E1,1.6000566E1,1.8114552E1,1.3324981E1,1.9166409E1,4.1610837E0,8.463266E0,0E0,0E0,0E0,0E0,0E0,0E0,0E0,0E0],"parents":[2147483647,0,0,1,1,2,2,3,3,4,4,5,5,6,6],"right_children":[2,4,6,8,10,12,14,-1,-1,-1,-1,-1,-1,-1,-1],"split_conditions":[1.270212E0,-1.2125255E0,-3.748234E-1,7.5686795E-1,-4.0584394E-1,-1.391022E0,4.4534788E-1,-0E0,-1.8975608E-2,1.0532868E-2,3.911349E-4,-4.7011374E-5,2.456125E-2,-1.690251E-2,-0E0],"split_indices":[13,27,11,7,14,27,2,0,0,0,0,0,0,0,0],"split_type":[0,0,0,0,0,0,0,0,0,0,0,0,0,0,0],"sum_hessian":[4.77E2,4.1E2,6.7E1,6E1,3.5E2,7E0,6E1,3.8E1,2.2E1,1.09E2,2.41E2,2E0,5E0,4.7E1,1.3E1],"tree_param":{"num_deleted":"0","num_feature":"35","num_nodes":"15","size_leaf_vector":"1"}},{"base_weights":[3.0889018E-2,1.228493E-1,-5.5216324E-1,2.082165E-1,-3.8131845E-1,-8.411199E-1,1.6099687E-1,-1.223958E-3,9.416958E-3,1.6913122E-2,-1.17282355E-2,-1.858647E-2,2.1360244E-3,1.3186133E-2,-3.9552148E-3],"categories":[],"categories_nodes":[],"categories_segments":[],"categories_sizes":[],"default_left":[0,0,0,0,0,0,0,0,0,0,0,0,0,0,0],"id":65,"left_children":[1,3,5,7,9,11,13,-1,-1,-1,-1,-1,-1,-1,-1],"loss_changes":[2.6515177E1,1.8707825E1,1.4757807E1,2.700104E1,1.6334507E1,5.11792E0,4.2977643E0,0E0,0E0,0E0,0E0,0E0,0E0,0E0,0E0],"parents":[2147483647,0,0,1,1,2,2,3,3,4,4,5,5,6,6],"right_children":[2,4,6,8,10,12,14,-1,-1,-1,-1,-1,-1,-1,-1],"split_conditions":[1.2789218E0,5.772932E-1,1.6703625E0,-1.7810747E-1,-2.7990294E0,3.3540595E-1,3.1596124E-1,-1.223958E-3,9.416958E-3,1.6913122E-2,-1.17282355E-2,-1.858647E-2,2.1360244E-3,1.3186133E-2,-3.9552148E-3],"split_indices":[12,18,12,12,26,19,0,0,0,0,0,0,0,0,0],"split_type":[0,0,0,0,0,0,0,0,0,0,0,0,0,0,0],"sum_hessian":[4.98E2,4.33E2,6.5E1,3.73E2,6E1,4.7E1,1.8E1,1.83E2,1.9E2,7E0,5.3E1,4.4E1,3E0,8E0,1E1],"tree_param":{"num_deleted":"0","num_feature":"35","num_nodes":"15","size_leaf_vector":"1"}},{"base_weights":[8.132816E-3,-3.733064E-1,1.1201442E-1,5.0159276E-1,-5.236084E-1,2.1590792E-1,-5.706305E-1,-1.092477E-2,2.145695E-2,-1.7921567E-2,-1.2043633E-3,9.930551E-4,8.494757E-3,3.9818925E-3,-1.9479545E-2],"categories":[],"categories_nodes":[],"categories_segments":[],"categories_sizes":[],"default_left":[0,0,0,0,0,0,0,0,0,0,0,0,0,0,0],"id":66,"left_children":[1,3,5,7,9,11,13,-1,-1,-1,-1,-1,-1,-1,-1],"loss_changes":[1.9000607E1,1.39601965E1,2.7125872E1,1.0677347E1,1.4297092E1,1.1149035E1,1.668602E1,0E0,0E0,0E0,0E0,0E0,0E0,0E0,0E0],"parents":[2147483647,0,0,1,1,2,2,3,3,4,4,5,5,6,6],"right_children":[2,4,6,8,10,12,14,-1,-1,-1,-1,-1,-1,-1,-1],"split_conditions":[-8.870321E-1,-1.2191099E0,1.553617E0,-5.9415495E-1,-1.3587129E-1,8.5547656E-2,8.6451524E-1,-1.092477E-2,2.145695E-2,-1.7921567E-2,-1.2043633E-3,9.930551E-4,8.494757E-3,3.9818925E-3,-1.9479545E-2],"split_indices":[27,13,12,2,14,26,26,0,0,0,0,0,0,0,0],"split_type":[0,0,0,0,0,0,0,0,0,0,0,0,0,0,0],"sum_hessian":[4.82E2,1E2,3.82E2,1.3E1,8.7E1,3.34E2,4.8E1,4E0,9E0,4.6E1,4.1E1,1.9E2,1.44E2,1.6E1,3.2E1],"tree_param":{"num_deleted":"0","num_feature":"35","num_nodes":"15","size_leaf_vector":"1"}},{"base_weights":[-0E0,-8.326607E-2,3.213549E-1,-2.0832056E-1,1.5974274E-1,5.32352E-1,-2.4612665E-1,3.8706355E-3,-6.1738915E-3,6.628174E-3,-1.1642004E-2,1.1622513E-3,1.5044685E-2,-2.0953197E-2,1.4641834E-3],"categories":[],"categories_nodes":[],"categories_segments":[],"categories_sizes":[],"default_left":[0,0,0,0,0,0,0,0,0,0,0,0,0,0,0],"id":67,"left_children":[1,3,5,7,9,11,13,-1,-1,-1,-1,-1,-1,-1,-1],"loss_changes":[1.3423866E1,1.2331649E1,1.2881183E1,1.1084905E1,1.7327276E1,7.131544E0,8.29468E0,0E0,0E0,0E0,0E0,0E0,0E0,0E0,0E0],"parents":[2147483647,0,0,1,1,2,2,3,3,4,4,5,5,6,6],"right_children":[2,4,6,8,10,12,14,-1,-1,-1,-1,-1,-1,-1,-1],"split_conditions":[9.908893E-1,4.989399E-1,4.090536E-1,-3.748234E-1,9.330534E-1,-3.222594E-1,-3.578428E-1,3.8706355E-3,-6.1738915E-3,6.628174E-3,-1.1642004E-2,1.1622513E-3,1.5044685E-2,-2.0953197E-2,1.4641834E-3],"split_indices":[25,27,12,11,10,10,27,0,0,0,0,0,0,0,0],"split_type":[0,0,0,0,0,0,0,0,0,0,0,0,0,0,0],"sum_hessian":[5.01E2,4E2,1.01E2,2.67E2,1.33E2,7.5E1,2.6E1,5.1E1,2.16E2,1.1E2,2.3E1,2.6E1,4.9E1,7E0,1.9E1],"tree_param":{"num_deleted":"0","num_feature":"35","num_nodes":"15","size_leaf_vector":"1"}},{"base_weights":[4.0953554E-2,-3.4281892E-1,1.4868556E-1,-1.7398739E-1,-1.1275464E0,2.2689396E-1,-5.8129424E-1,1.8370807E-3,-1.8037794E-2,-2.624579E-2,5.522286E-3,6.5362183E-3,-6.1026597E-3,-1.7536404E-2,5.2487478E-3],"categories":[],"categories_nodes":[],"categories_segments":[],"categories_sizes":[],"default_left":[0,0,0,0,0,0,0,0,0,0,0,0,0,0,0],"id":68,"left_children":[1,3,5,7,9,11,13,-1,-1,-1,-1,-1,-1,-1,-1],"loss_changes":[1.9794554E1,1.2084732E1,2.1546703E1,1.8197807E1,6.169241E0,1.8560808E1,1.0051009E1,0E0,0E0,0E0,0E0,0E0,0E0,0E0,0E0],"parents":[2147483647,0,0,1,1,2,2,3,3,4,4,5,5,6,6],"right_children":[2,4,6,8,10,12,14,-1,-1,-1,-1,-1,-1,-1,-1],"split_conditions":[-8.870321E-1,1.1012493E0,1.577939E0,-1.0970279E0,1.5607098E0,5.772932E-1,1.7759894E0,1.8370807E-3,-1.8037794E-2,-2.624579E-2,5.522286E-3,6.5362183E-3,-6.1026597E-3,-1.7536404E-2,5.2487478E-3],"split_indices":[27,5,12,27,10,18,12,0,0,0,0,0,0,0,0],"split_type":[0,0,0,0,0,0,0,0,0,0,0,0,0,0,0],"sum_hessian":[4.79E2,1.02E2,3.77E2,8.7E1,1.5E1,3.43E2,3.4E1,6.4E1,2.3E1,1.4E1,1E0,2.91E2,5.2E1,2.6E1,8E0],"tree_param":{"num_deleted":"0","num_feature":"35","num_nodes":"15","size_leaf_vector":"1"}},{"base_weights":[-4.6156035E-3,8.0415554E-2,-5.4735786E-1,-1.1643126E-1,2.613921E-1,-7.6337224E-1,-0E0,-2.7553646E-2,-4.4315713E-4,8.563161E-3,-4.488564E-3,-1.6905325E-2,1.3358339E-2,5.681664E-3,-8.159208E-3],"categories":[],"categories_nodes":[],"categories_segments":[],"categories_sizes":[],"default_left":[0,0,0,0,0,0,0,0,0,0,0,0,0,0,0],"id":69,"left_children":[1,3,5,7,9,11,13,-1,-1,-1,-1,-1,-1,-1,-1],"loss_changes":[2.2753128E1,1.5025685E1,7.315403E0,2.2081787E1,1.821994E1,6.815544E0,2.8798914E0,0E0,0E0,0E0,0E0,0E0,0E0,0E0,0E0],"parents":[2147483647,0,0,1,1,2,2,3,3,4,4,5,5,6,6],"right_children":[2,4,6,8,10,12,14,-1,-1,-1,-1,-1,-1,-1,-1],"split_conditions":[1.2789218E0,7.253335E-2,4.4621E-1,-1.5595956E0,4.0473735E-1,4.8193473E-1,3.1596124E-1,-2.7553646E-2,-4.4315713E-4,8.563161E-3,-4.488564E-3,-1.6905325E-2,1.3358339E-2,5.681664E-3,-8.159208E-3],"split_indices":[12,26,25,12,0,1,0,0,0,0,0,0,0,0,0],"split_type":[0,0,0,0,0,0,0,0,0,0,0,0,0,0,0],"sum_hessian":[4.79E2,4.14E2,6.5E1,1.96E2,2.18E2,4.5E1,2E1,1.1E1,1.85E2,1.64E2,5.4E1,4.4E1,1E0,1.1E1,9E0],"tree_param":{"num_deleted":"0","num_feature":"35","num_nodes":"15","size_leaf_vector":"1"}},{"base_weights":[9.768221E-3,3.6491427E-1,-1.09816305E-1,4.9918175E-1,-4.405997E-1,-8.0060583E-1,-1.2241087E-2,1.7483901E-2,3.2903983E-3,8.230436E-4,-1.5433352E-2,-2.0454811E-2,-7.3263934E-4,4.1627097E-3,-3.5429283E-3],"categories":[],"categories_nodes":[],"categories_segments":[],"categories_sizes":[],"default_left":[0,0,0,0,0,0,0,0,0,0,0,0,0,0,0],"id":70,"left_children":[1,3,5,7,9,11,13,-1,-1,-1,-1,-1,-1,-1,-1],"loss_changes":[2.1145529E1,1.4125908E1,2.3837395E1,1.2478931E1,3.6648943E0,6.3327255E0,1.1817324E1,0E0,0E0,0E0,0E0,0E0,0E0,0E0,0E0],"parents":[2147483647,0,0,1,1,2,2,3,3,4,4,5,5,6,6],"right_children":[2,4,6,8,10,12,14,-1,-1,-1,-1,-1,-1,-1,-1],"split_conditions":[-6.055279E-1,9.52357E-1,-5.356385E-1,-1.7688173E-1,3.0635238E-1,3.6199325E-1,6.1159957E-2,1.7483901E-2,3.2903983E-3,8.230436E-4,-1.5433352E-2,-2.0454811E-2,-7.3263934E-4,4.1627097E-3,-3.5429283E-3],"split_indices":[14,17,14,13,20,11,15,0,0,0,0,0,0,0,0],"split_type":[0,0,0,0,0,0,0,0,0,0,0,0,0,0,0],"sum_hessian":[4.88E2,1.24E2,3.64E2,1.08E2,1.6E1,4.2E1,3.22E2,4.8E1,6E1,6E0,1E1,3.1E1,1.1E1,1.35E2,1.87E2],"tree_param":{"num_deleted":"0","num_feature":"35","num_nodes":"15","size_leaf_vector":"1"}},{"base_weights":[-2.1440497E-2,-2.2370993E-1,1.7301755E-1,-3.61894E-1,5.0618964E-1,-0E0,4.524824E-1,-4.8921066E-3,-2.693155E-2,1.7888572E-2,-8.661724E-3,7.2751963E-3,-3.214336E-3,1.1923084E-2,-4.8676725E-3],"categories":[],"categories_nodes":[],"categories_segments":[],"categories_sizes":[],"default_left":[0,0,0,0,0,0,0,0,0,0,0,0,0,0,0],"id":71,"left_children":[1,3,5,7,9,11,13,-1,-1,-1,-1,-1,-1,-1,-1],"loss_changes":[1.9676563E1,2.5134624E1,1.2520914E1,2.2003431E1,1.5457947E1,9.086214E0,1.0440638E1,0E0,0E0,0E0,0E0,0E0,0E0,0E0,0E0],"parents":[2147483647,0,0,1,1,2,2,3,3,4,4,5,5,6,6],"right_children":[2,4,6,8,10,12,14,-1,-1,-1,-1,-1,-1,-1,-1],"split_conditions":[5.7948798E-2,6.0145617E-1,3.828818E-1,1.1012493E0,4.1202283E-1,2.0499112E-1,1.6749161E0,-4.8921066E-3,-2.693155E-2,1.7888572E-2,-8.661724E-3,7.2751963E-3,-3.214336E-3,1.1923084E-2,-4.8676725E-3],"split_indices":[27,9,16,5,20,0,27,0,0,0,0,0,0,0,0],"split_type":[0,0,0,0,0,0,0,0,0,0,0,0,0,0,0],"sum_hessian":[4.95E2,2.45E2,2.5E2,2.08E2,3.7E1,1.54E2,9.6E1,1.89E2,1.9E1,2.7E1,1E1,4.5E1,1.09E2,8.1E1,1.5E1],"tree_param":{"num_deleted":"0","num_feature":"35","num_nodes":"15","size_leaf_vector":"1"}},{"base_weights":[-1.49180805E-2,-1.3045008E-1,3.363424E-1,2.7918378E-1,-2.4951546E-1,4.747513E-1,-3.1165454E-1,2.3331916E-2,3.2117127E-3,-6.9185602E-3,1.0174696E-2,1.4667277E-2,-0E0,-9.795835E-3,4.373478E-3],"categories":[],"categories_nodes":[],"categories_segments":[],"categories_sizes":[],"default_left":[0,0,0,0,0,0,0,0,0,0,0,0,0,0,0],"id":72,"left_children":[1,3,5,7,9,11,13,-1,-1,-1,-1,-1,-1,-1,-1],"loss_changes":[1.8833572E1,1.7424145E1,1.0683507E1,6.6125293E0,2.0512312E1,1.2245497E1,2.374752E0,0E0,0E0,0E0,0E0,0E0,0E0,0E0,0E0],"parents":[2147483647,0,0,1,1,2,2,3,3,4,4,5,5,6,6],"right_children":[2,4,6,8,10,12,14,-1,-1,-1,-1,-1,-1,-1,-1],"split_conditions":[6.9003606E-1,2.8874063E-1,4.984912E-1,-1.660997E0,1.3407563E0,7.5791496E-1,1E0,2.3331916E-2,3.2117127E-3,-6.9185602E-3,1.0174696E-2,1.4667277E-2,-0E0,-9.795835E-3,4.373478E-3],"split_indices":[27,20,18,26,25,21,29,0,0,0,0,0,0,0,0],"split_type":[0,0,0,0,0,0,0,0,0,0,0,0,0,0,0],"sum_hessian":[4.65E2,3.53E2,1.12E2,7.7E1,2.76E2,9.4E1,1.8E1,6E0,7.1E1,2.47E2,2.9E1,6.1E1,3.3E1,1.5E1,3E0],"tree_param":{"num_deleted":"0","num_feature":"35","num_nodes":"15","size_leaf_vector":"1"}},{"base_weights":[1.8442424E-2,1.0148279E-1,-4.4518232E-1,1.8273029E-1,-2.8176165E-1,-6.803667E-1,7.41202E-1,1.1608021E-2,1.5810966E-3,-8.2414143E-4,-2.1832682E-2,-1.9875316E-2,-0E0,2.0924453E-2,-2.8390144E-3],"categories":[],"categories_nodes":[],"categories_segments":[],"categories_sizes":[],"default_left":[0,0,0,0,0,0,0,0,0,0,0,0,0,0,0],"id":73,"left_children":[1,3,5,7,9,11,13,-1,-1,-1,-1,-1,-1,-1,-1],"loss_changes":[1.8110952E1,1.2708103E1,2.0758095E1,1.3266532E1,1.2414492E1,1.2253563E1,4.4338536E0,0E0,0E0,0E0,0E0,0E0,0E0,0E0,0E0],"parents":[2147483647,0,0,1,1,2,2,3,3,4,4,5,5,6,6],"right_children":[2,4,6,8,10,12,14,-1,-1,-1,-1,-1,-1,-1,-1],"split_conditions":[1.270212E0,1.3693709E0,1.9121097E-1,-8.84108E-1,1.1012493E0,5.29701E-1,1.4422178E-1,1.1608021E-2,1.5810966E-3,-8.2414143E-4,-2.1832682E-2,-1.9875316E-2,-0E0,2.0924453E-2,-2.8390144E-3],"split_indices":[13,7,14,13,5,25,15,0,0,0,0,0,0,0,0],"split_type":[0,0,0,0,0,0,0,0,0,0,0,0,0,0,0],"sum_hessian":[4.75E2,4.06E2,6.9E1,3.38E2,6.8E1,5.9E1,1E1,6.6E1,2.72E2,5.5E1,1.3E1,3.9E1,2E1,8E0,2E0],"tree_param":{"num_deleted":"0","num_feature":"35","num_nodes":"15","size_leaf_vector":"1"}},{"base_weights":[-2.9251583E-2,-2.1865463E-1,2.2670044E-1,-3.828899E-1,2.6612595E-1,2.7666554E-1,-1.1227885E0,3.818021E-3,-1.0069538E-2,9.609912E-3,-3.376505E-2,8.618825E-3,-4.155929E-4,4.4435184E-3,-3.1753488E-2],"categories":[],"categories_nodes":[],"categories_segments":[],"categories_sizes":[],"default_left":[0,0,0,0,0,0,0,0,0,0,0,0,0,0,0],"id":74,"left_children":[1,3,5,7,9,11,13,-1,-1,-1,-1,-1,-1,-1,-1],"loss_changes":[2.3602968E1,2.2772852E1,1.3597759E1,1.5242643E1,3.0160763E1,9.605783E0,6.447771E0,0E0,0E0,0E0,0E0,0E0,0E0,0E0,0E0],"parents":[2147483647,0,0,1,1,2,2,3,3,4,4,5,5,6,6],"right_children":[2,4,6,8,10,12,14,-1,-1,-1,-1,-1,-1,-1,-1],"split_conditions":[-3.8494682E-1,4.7794032E-1,2.1458595E0,-1.1728883E0,-5.549284E-1,4.090536E-1,-8.008282E-1,3.818021E-3,-1.0069538E-2,9.609912E-3,-3.376505E-2,8.618825E-3,-4.155929E-4,4.4435184E-3,-3.1753488E-2],"split_indices":[2,27,24,26,2,12,6,0,0,0,0,0,0,0,0],"split_type":[0,0,0,0,0,0,0,0,0,0,0,0,0,0,0],"sum_hessian":[4.83E2,2.8E2,2.03E2,2.11E2,6.9E1,1.98E2,5E0,3.5E1,1.76E2,6.4E1,5E0,1.32E2,6.6E1,1E0,4E0],"tree_param":{"num_deleted":"0","num_feature":"35","num_nodes":"15","size_leaf_vector":"1"}},{"base_weights":[5.5927366E-2,1.0692266E-1,-5.437038E-1,-1.6614283E-2,3.5971788E-1,-1.1010227E0,1.1927255E0,3.5957168E-3,-6.1029517E-3,-2.1619456E-2,9.139718E-3,-0E0,-2.8998302E-2,2.5815248E-2,-0E0],"categories":[],"categories_nodes":[],"categories_segments":[],"categories_sizes":[],"default_left":[0,0,0,0,0,0,0,0,0,0,0,0,0,0,0],"id":75,"left_children":[1,3,5,7,9,11,13,-1,-1,-1,-1,-1,-1,-1,-1],"loss_changes":[1.5366188E1,1.522032E1,4.0276787E1,1.831217E1,2.2645159E1,1.2874317E1,7.686672E-1,0E0,0E0,0E0,0E0,0E0,0E0,0E0,0E0],"parents":[2147483647,0,0,1,1,2,2,3,3,4,4,5,5,6,6],"right_children":[2,4,6,8,10,12,14,-1,-1,-1,-1,-1,-1,-1,-1],"split_conditions":[1.1012493E0,3.944111E-1,4.6544902E-2,2.1916498E-1,-1.765617E0,-3.748234E-1,1.09881E0,3.5957168E-3,-6.1029517E-3,-2.1619456E-2,9.139718E-3,-0E0,-2.8998302E-2,2.5815248E-2,-0E0],"split_indices":[5,20,2,13,12,11,11,0,0,0,0,0,0,0,0],"split_type":[0,0,0,0,0,0,0,0,0,0,0,0,0,0,0],"sum_hessian":[5.11E2,4.74E2,3.7E1,3.17E2,1.57E2,2.9E1,8E0,1.87E2,1.3E2,8E0,1.49E2,7E0,2.2E1,7E0,1E0],"tree_param":{"num_deleted":"0","num_feature":"35","num_nodes":"15","size_leaf_vector":"1"}},{"base_weights":[-1.2818374E-2,-1.2216259E-1,3.4669024E-1,-1.7223524E-1,9.9915916E-1,5.3264713E-1,-4.2681184E-1,-2.1459667E-3,-1.8744621E-2,2.4011582E-2,-0E0,1.4067656E-2,-9.935799E-3,8.931662E-3,-1.6361414E-2],"categories":[],"categories_nodes":[],"categories_segments":[],"categories_sizes":[],"default_left":[0,0,0,0,0,0,0,0,0,0,0,0,0,0,0],"id":76,"left_children":[1,3,5,7,9,11,13,-1,-1,-1,-1,-1,-1,-1,-1],"loss_changes":[1.8335964E1,1.9954967E1,1.6095022E1,1.619078E1,3.7632885E0,1.6548254E1,8.278354E0,0E0,0E0,0E0,0E0,0E0,0E0,0E0,0E0],"parents":[2147483647,0,0,1,1,2,2,3,3,4,4,5,5,6,6],"right_children":[2,4,6,8,10,12,14,-1,-1,-1,-1,-1,-1,-1,-1],"split_conditions":[6.9003606E-1,8.087165E-1,3.1034547E-1,1.1012493E0,6.710657E-1,1.1998429E0,-8.957488E-1,-2.1459667E-3,-1.8744621E-2,2.4011582E-2,-0E0,1.4067656E-2,-9.935799E-3,8.931662E-3,-1.6361414E-2],"split_indices":[27,15,15,5,0,12,12,0,0,0,0,0,0,0,0],"split_type":[0,0,0,0,0,0,0,0,0,0,0,0,0,0,0],"sum_hessian":[4.68E2,3.62E2,1.06E2,3.49E2,1.3E1,8.7E1,1.9E1,3.25E2,2.4E1,1.1E1,2E0,7.6E1,1.1E1,5E0,1.4E1],"tree_param":{"num_deleted":"0","num_feature":"35","num_nodes":"15","size_leaf_vector":"1"}},{"base_weights":[-1.2016146E-2,-1.9509426E-1,2.378303E-1,-3.8021776E-1,2.67034E-1,6.969318E-1,9.099315E-2,2.6921143E-3,-9.5366E-3,-1.0182727E-2,1.1924825E-2,1.627647E-3,2.077803E-2,-1.5468625E-3,1.2244878E-2],"categories":[],"categories_nodes":[],"categories_segments":[],"categories_sizes":[],"default_left":[0,0,0,0,0,0,0,0,0,0,0,0,0,0,0],"id":77,"left_children":[1,3,5,7,9,11,13,-1,-1,-1,-1,-1,-1,-1,-1],"loss_changes":[2.2051682E1,2.435602E1,1.2702699E1,1.0567459E1,2.1135912E1,8.60409E0,1.4405638E1,0E0,0E0,0E0,0E0,0E0,0E0,0E0,0E0],"parents":[2147483647,0,0,1,1,2,2,3,3,4,4,5,5,6,6],"right_children":[2,4,6,8,10,12,14,-1,-1,-1,-1,-1,-1,-1,-1],"split_conditions":[-4.0557677E-1,3.7294245E-1,6.0832655E-1,-1.2422633E0,-5.7052594E-1,3.146199E-1,1.3884655E0,2.6921143E-3,-9.5366E-3,-1.0182727E-2,1.1924825E-2,1.627647E-3,2.077803E-2,-1.5468625E-3,1.2244878E-2],"split_indices":[17,27,24,26,26,18,25,0,0,0,0,0,0,0,0],"split_type":[0,0,0,0,0,0,0,0,0,0,0,0,0,0,0],"sum_hessian":[4.79E2,2.79E2,2E2,2.01E2,7.8E1,4.5E1,1.55E2,3E1,1.71E2,2.2E1,5.6E1,1.8E1,2.7E1,1.17E2,3.8E1],"tree_param":{"num_deleted":"0","num_feature":"35","num_nodes":"15","size_leaf_vector":"1"}},{"base_weights":[4.0770378E-2,4.011544E-1,-3.804838E-2,4.7417557E-1,-2.3847984E-2,2.0522611E-1,-2.2235744E-1,1.368728E-2,-0E0,-4.2657773E-3,6.714619E-3,8.94447E-3,-7.888746E-3],"categories":[],"categories_nodes":[],"categories_segments":[],"categories_sizes":[],"default_left":[0,0,0,0,0,0,0,0,0,0,0,0,0],"id":78,"left_children":[1,3,5,7,-1,9,11,-1,-1,-1,-1,-1,-1],"loss_changes":[1.4567739E1,1.1117999E1,1.8447016E1,9.270487E0,0E0,9.823849E0,2.7492266E1,0E0,0E0,0E0,0E0,0E0,0E0],"parents":[2147483647,0,0,1,1,2,2,3,3,5,5,6,6],"right_children":[2,4,6,8,-1,10,12,-1,-1,-1,-1,-1,-1],"split_conditions":[-3.748234E-1,1.1451906E0,-1.1269225E-1,5.772932E-1,-2.3847984E-2,7.253335E-2,-6.055279E-1,1.368728E-2,-0E0,-4.2657773E-3,6.714619E-3,8.94447E-3,-7.888746E-3],"split_indices":[11,26,6,18,0,26,14,0,0,0,0,0,0],"split_type":[0,0,0,0,0,0,0,0,0,0,0,0,0],"sum_hessian":[4.97E2,9E1,4.07E2,8.8E1,2E0,1.73E2,2.34E2,6.1E1,2.7E1,3.9E1,1.34E2,4.6E1,1.88E2],"tree_param":{"num_deleted":"0","num_feature":"35","num_nodes":"13","size_leaf_vector":"1"}},{"base_weights":[-2.6574561E-2,-1.2778981E-1,3.0894953E-1,-3.6118258E-2,-6.3998955E-1,8.7698543E-1,6.151144E-2,-2.0433613E-3,9.617395E-3,-1.9296557E-2,9.620004E-3,1.9686956E-2,-2.3345111E-3,5.2591264E-3,-1.0382378E-2],"categories":[],"categories_nodes":[],"categories_segments":[],"categories_sizes":[],"default_left":[0,0,0,0,0,0,0,0,0,0,0,0,0,0,0],"id":79,"left_children":[1,3,5,7,9,11,13,-1,-1,-1,-1,-1,-1,-1,-1],"loss_changes":[1.6266596E1,1.6838512E1,1.4414522E1,1.0680731E1,2.1439718E1,4.511408E0,9.37405E0,0E0,0E0,0E0,0E0,0E0,0E0,0E0,0E0],"parents":[2147483647,0,0,1,1,2,2,3,3,4,4,5,5,6,6],"right_children":[2,4,6,8,10,12,14,-1,-1,-1,-1,-1,-1,-1,-1],"split_conditions":[6.9003606E-1,1.270212E0,-2.2629714E-1,1.3805139E0,5.512366E-1,1.1998429E0,5.7544374E-1,-2.0433613E-3,9.617395E-3,-1.9296557E-2,9.620004E-3,1.9686956E-2,-2.3345111E-3,5.2591264E-3,-1.0382378E-2],"split_indices":[27,13,3,25,3,12,6,0,0,0,0,0,0,0,0],"split_type":[0,0,0,0,0,0,0,0,0,0,0,0,0,0,0],"sum_hessian":[4.8E2,3.72E2,1.08E2,3.19E2,5.3E1,3E1,7.8E1,2.86E2,3.3E1,4.2E1,1.1E1,2.8E1,2E0,6E1,1.8E1],"tree_param":{"num_deleted":"0","num_feature":"35","num_nodes":"15","size_leaf_vector":"1"}},{"base_weights":[-1.2728788E-2,-3.5980478E-1,8.1690505E-2,-9.003503E-1,-1.12829894E-1,3.8941976E-1,-5.450154E-2,1.4655298E-2,-2.308623E-2,-0E0,-1.4623218E-2,1.3063073E-2,1.3546678E-3,1.1800029E-3,-1.52389165E-2],"categories":[],"categories_nodes":[],"categories_segments":[],"categories_sizes":[],"default_left":[0,0,0,0,0,0,0,0,0,0,0,0,0,0,0],"id":80,"left_children":[1,3,5,7,9,11,13,-1,-1,-1,-1,-1,-1,-1,-1],"loss_changes":[1.6328987E1,1.3068272E1,1.6429E1,1.5385159E1,5.969497E0,9.371384E0,2.2071327E1,0E0,0E0,0E0,0E0,0E0,0E0,0E0,0E0],"parents":[2147483647,0,0,1,1,2,2,3,3,4,4,5,5,6,6],"right_children":[2,4,6,8,10,12,14,-1,-1,-1,-1,-1,-1,-1,-1],"split_conditions":[-9.080317E-1,1E0,-1.1269225E-1,-1.3970808E0,1.1998429E0,4.7801608E-1,9.886267E-1,1.4655298E-2,-2.308623E-2,-0E0,-1.4623218E-2,1.3063073E-2,1.3546678E-3,1.1800029E-3,-1.52389165E-2],"split_indices":[27,33,6,26,12,25,26,0,0,0,0,0,0,0,0],"split_type":[0,0,0,0,0,0,0,0,0,0,0,0,0,0,0],"sum_hessian":[4.86E2,1.05E2,3.81E2,3E1,7.5E1,1.18E2,2.63E2,3E0,2.7E1,6.4E1,1.1E1,6.2E1,5.6E1,2.27E2,3.6E1],"tree_param":{"num_deleted":"0","num_feature":"35","num_nodes":"15","size_leaf_vector":"1"}},{"base_weights":[-4.4007367E-3,3.6378437E-1,-9.962348E-2,-3.8011912E-2,1.0009902E0,-3.8362775E-2,-9.0195215E-1,4.8420876E-3,-1.3822074E-2,-0E0,2.9290576E-2,6.0828486E-3,-2.9741132E-3,-2.3794755E-2,4.7856364E-3],"categories":[],